Heroes,0,1,2,3,4,5,6,7,8,9,10,11,12,13,14,15,16,17,18,19,20,21,22,23,24
Anti-Mage,0.30505577,-0.8054894,1.1211579,-0.14198570000000002,0.94679374,1.3479499,0.2588346,-0.113208145,0.46585336,-0.42710173,-0.8649239,-0.14762491,-0.059076425,-0.22041512,-1.5453226999999998,0.7843611999999999,-0.06060197,0.20047858,0.32724749999999997,-0.5685878000000001,0.30157033,0.16959828,0.386424,0.60769045,0.6692634
Axe,0.22864248,0.85814947,-0.5141697000000001,0.60204744,-0.46475846,-0.33646986,-0.042450774000000004,-0.07454806,-0.04677368,-0.5573081,0.83545685,-0.082733065,-0.31300426,-0.14870901,0.110277876,0.9549945,0.6013665,0.5950546999999999,-0.54550856,-0.7453959,0.6161762,1.0818839,0.19057344,0.105105534,0.21987343
Bane,0.43443283,0.015648555,0.84229964,-0.048545964000000004,-0.3505953,-0.2784357,-0.28418672,1.0251995,-0.6055409,0.20238097,0.31247094,0.171424,0.5508268,0.6849272,0.52162194,0.62589747,-0.52246135,0.23060570000000002,-0.2694716,-0.18391629999999998,-0.7824611,-0.13705419,-0.17283887,-0.5223425,-0.24162345
Bloodseeker,0.48122668,0.33867240000000004,0.37038112,0.22071245,-0.23162689999999997,-0.2726208,0.32608990000000004,-0.009943923,0.052212536,-0.21107244,0.42262772,0.14904553,0.03363247,-0.49762633,-0.06125363,0.9689009,0.2238384,-0.25663674,-0.106540404,-0.46886462,0.31043306,0.6080264,0.15719986,-0.029146083,0.09942665
Crystal Maiden,0.46528065,-0.21939535,0.98496634,-0.34382567,-0.42305034,-0.24380672,-0.12883827,1.0245655,-0.7587246,0.39816815,0.18511748,0.16360539999999998,0.9447266,0.7074326,0.66912895,0.61674935,-0.5040935999999999,-0.044536047,-0.06215262,-0.015832951,-0.7969323,-0.5193114999999999,0.09811389,-0.46258843,-0.26588267
Drow Ranger,-0.19439479999999998,-1.3224114,1.0485512,0.55771375,0.4433642,1.2083743,-0.11710558,0.27456479999999994,0.8859398,-0.69788414,-0.14345367,-0.23548223,0.32409468,-0.49676374,-1.7959098000000002,0.56041735,-0.021445516,0.27994087,0.35655802,-0.5489744000000001,0.29402637,0.19413994,0.40049216,0.25271267,0.82333773
Earthshaker,-0.16892886,0.601218,0.45732057,-0.9845613000000001,-0.39532098,-0.34932557,0.85922086,0.35972944,-0.68053067,-0.08311534,-0.00684935,0.8696033000000001,0.036583707,0.09597835,0.36796516,0.21433933,0.8172116,0.7682866999999999,0.10549079,-0.18496582,-0.1738461,-0.22141364,0.16163196,0.11660347,0.8116325
Juggernaut,0.56026465,-1.0713224,0.9212790000000001,-0.19256884,0.82042664,1.3492483,0.28802496,-0.57306117,0.3068406,-0.21175484,-1.0637468,-0.5998834,0.21889988,0.03713937,-1.3964231000000003,0.8738579,0.35271257,0.5200005999999999,0.5553664,-0.15243289999999998,0.4884429,0.30598113,0.37438768,0.66501635,0.49495327
Mirana,-0.043565556,-0.43017885,0.001538409,-0.2684724,-0.14786749,-0.789446,0.58752275,1.5887165,-0.23898813,-0.40638617,0.14786328,0.39909416,0.08982599,0.15961939,0.29480323,0.004092513,0.8263584999999999,-0.29401994,0.18616366,0.11067507,-0.39213190000000003,-0.9560173000000001,0.56580424,0.56686985,0.5678255999999999
Morphling,0.094195,-0.98826677,0.6137299,0.25069556,0.3929863,0.88212913,0.05929188,-0.14171714,0.35902540000000005,-0.42278725,-0.6610154,-0.10316435,0.46177015,-0.29926813,-1.341226,0.5995001,-0.07741542,0.07109207,0.10769253,-0.26959717,0.07264575,0.29673955,0.27365908,0.5054173,0.54381114
Shadow Fiend,-0.66167605,-0.29270799999999997,0.21676706,0.30804768,0.00018686900000000002,-0.83717936,0.29819074,-0.085690975,-0.41003406,-0.23556039999999998,-0.5250752,0.088817,0.8624016,-0.35174978,-0.4704834,0.2289121,0.091515735,-0.70248663,-0.70173675,0.23726204,-0.5568001,0.6332413,0.25449058,0.37141198,0.4512670999999999
Phantom Lancer,0.44859204,-1.137441,0.59778965,0.1338869,0.61003184,1.4557091,-0.014080366,-0.37848997,0.37903178,-0.52930903,-0.9361294,-0.49266103,0.26770464,0.03533191,-1.4074593,0.817522,0.24271410000000002,0.50433296,0.33739507,-0.27341363,0.5165412,0.22558452,0.25451332,0.80445707,0.41526369999999996
Puck,-0.42228717,-0.051113013,-0.5197004,0.30239720000000003,0.11586753,-0.872607,0.04095705,-0.01776023,-0.69675624,-0.24780445,-0.6737377,0.010747028999999998,0.87948537,0.12272071,-0.03758427,0.25479832,0.14587197,-0.27680117,-0.8162814,0.21079367,-0.5675045,0.80891484,-0.016412327,0.62214035,0.18276425
Pudge,-0.03392349,0.18986431,-0.060350135,0.004894718,-0.16591822,-0.39974844,0.16620758,0.23565148,-0.39992908,-0.37925490000000006,0.026385939,0.06532629599999999,0.04086371,0.11562544,0.123518005,0.45421368,0.41301809999999994,0.5325821,-0.27494776,-0.12986384,0.09631451,0.4373891,0.19418071,0.17549978,0.29770508
Razor,-0.008848678,-0.26362482,-0.3583421,0.31115240000000005,-0.19256173,-0.5500020999999999,-0.04636685,0.09863212,-0.38796929999999996,-0.45741105,-0.4090474,-0.13677958,0.644139,0.09577057,0.032794647,0.41157952,0.5154239,-0.2672488,-0.37617490000000003,0.11725009,-0.13282120000000003,0.43300217,0.13996582,0.46295690000000006,-0.03445989
Sand King,0.13926758,1.1202072,-0.49488795,0.39541957,-0.5826352,-0.56289893,0.11170716,-0.16895117,-0.17484696,-0.4098813,0.6644373,0.1293773,-0.26177683,-0.13019043,0.3153393,0.90906423,0.57569075,0.8693296999999999,-0.50138235,-0.5429813,0.43280295,1.2090796,0.13239855,0.002067302,0.18372522
Storm Spirit,-0.5172424,-0.15300876,-0.25031197,0.40306062,0.004777769,-1.2012553,0.11254684599999999,-0.01346946,-0.40022814,-0.40583304,-0.65496266,0.10480215,0.6875725,-0.08551358,-0.2009932,0.18441184,-0.042014446,-0.4998268,-0.9168803,0.22808658,-0.6296463000000001,1.118955,0.057909105,0.5475481,0.19167815
Sven,0.25897413,-0.6388775,0.7132046999999999,-0.11563049,0.36707416,1.7296131000000001,-0.045493897,0.046205148,0.88724834,-0.5915429,-1.1345243,0.5435272,-0.04904651,0.020696795,-1.9510522000000001,0.80402243,-0.19824426,0.43164608,0.12762515,-0.51934606,0.4864125,0.60506094,0.04900048,0.7901196999999999,0.48008752
Tiny,-0.54449856,0.6891003000000001,0.27961698,-0.6454419,0.003345131,-0.6812813,0.42545109999999997,0.41627159999999996,-0.523694,-0.52205,-0.10586795,0.72894317,-0.25359842,0.007946186,0.059626,0.2882284,0.2617579,0.55800927,-0.37929818,-0.05436451,-0.15447631,0.20191057,0.2195525,0.2802985,0.69216657
Vengeful Spirit,0.3293493,-0.24264404,0.7235913,0.27588564,-0.5876177,-0.39815184,-0.09616897,1.2923946000000002,0.16620974,0.11303294,0.48771703,0.62584054,0.19196995,0.33558962,0.26429102,0.1826122,-0.107958525,0.23668501,-0.24666129999999997,-0.33189675,-1.0553573,0.32708487,-0.18580888,-0.65966594,0.3186446
Windranger,-0.22201152,0.025088243,0.06690094,-0.23122999,-0.014783263,-0.8321337999999999,0.44984165,0.68437535,-0.18577002,-0.30878192,-0.12301164,0.42887408,0.19856724,0.03861297,0.020397257,0.16892192,0.08850378,-0.28164023,-0.40919662,-0.05437653,-0.4221911,0.2142514,0.32978624,0.37531079999999994,0.47594532
Zeus,-0.6096706999999999,0.16235311,0.27304184,0.024128346000000002,0.47301662,-1.2034677,0.2523828,0.4230219,-0.29653713,-0.4029821,-0.27816775,0.23731726,0.18779731,-0.3982603,-0.40501377,0.42157194,-0.33538,-0.790083,-0.68317217,-0.14580186,-0.49851179999999995,0.6373977,0.45311695,0.27595812,0.42511368
Kunkka,-0.55719167,0.12569277,-0.10163201,0.33183447,0.041440517,-0.96361285,0.1361054,0.08734286599999999,-0.30563077,-0.43923745,-0.21766677,0.10650937,0.29091597,-0.15378965,-0.12431146,0.3077937,-0.00731588,-0.121172145,-0.7152115,-0.030946092999999997,-0.2624588,1.0334584999999998,0.27342412,0.28041345,0.34767709999999996
Lina,-0.4160174,-0.21104299,-0.02444906,-0.003947657,0.07529024,-1.1093608999999998,0.19068865,0.9860268,-0.24866377,-0.6461186,-0.14736904,0.09421959,0.22149675,0.053422465999999995,0.033522632000000004,0.06361546,0.26994905,-0.48605600000000004,-0.4661035,0.15107183,-0.3523182,0.06678559,0.4673442,0.5837903,0.20870642
Lion,0.09325845,-0.16103934,-0.64287996,-0.2919553,-0.4311322,-0.3443036,-0.10738784,1.3967962,-0.5133662999999999,-0.49957877,0.045061342000000004,0.16681221,0.4242039000000001,0.8991379999999999,0.6613581999999999,0.030848235,0.57617694,0.78140676,-0.08922111,0.07326204,-0.24659418,-0.6680695,0.11223155,0.86092424,0.07784455
Shadow Shaman,-0.045579586,-0.19607724,0.07157272,-0.57272553,-0.51278496,-0.37862979999999996,0.66595757,0.9012998999999999,-0.4278338,0.010456856,0.016440121000000002,0.49808323,0.5794621,0.49431375,0.44109598,0.040049378,0.5851384,0.43137288,0.1957483,0.22279254,-0.58147216,-0.6665052,0.19802472,0.44745076,0.5999667
Slardar,0.3380111,1.3130826,0.057667552999999996,0.5118194,-0.64257115,-0.46150786,0.67209345,0.24382722,0.23694852,-0.45650953,0.9043752,0.93974966,-0.39615859999999997,-0.5274357,-0.06246055,0.7554625,0.32785073,0.06463091,-0.52653974,-0.9739275,0.2553178,1.0205587999999999,0.23614319,-0.28227463,0.37093458
Tidehunter,0.6971595,0.7533291999999999,-0.24299495,0.6433082,-0.81631863,-0.48757684,0.41686124,-0.41433024,-0.039447438,-0.06340122,0.8957313,-0.000412178,0.20280136,-0.3866177,0.3068592,1.0267247,0.8431436,0.2450841,-0.32584268,-0.53017557,0.46826664,1.0877743999999998,0.20533915,-0.3013567,0.19669658
Witch Doctor,0.4694109,-0.18039449999999999,0.81685096,-0.22084779,-0.3275112,-0.21598165,-0.31858504,0.86928123,-0.85462755,0.17187660000000002,0.24069968,0.073099345,0.82044834,0.7249412,0.6410394,0.5887305,-0.43838826,0.20624988,-0.16245864,0.015959857,-0.7327,-0.31754544,0.019594716,-0.42421156,-0.3900012
Lich,0.5793684,0.10622262,0.99323606,-0.28704053,-0.03596392,-0.41819129999999993,-0.12933037,1.0629228000000002,-0.97551966,0.24674623,0.21634285,0.13531654,0.47020116,0.6237155,0.5858855,0.6876466,-0.65545404,-0.14266084,-0.22965188,-0.17131177,-0.8020893,-0.331629,0.057832315999999995,-0.5168395,-0.39761108
Riki,0.20919853,-0.5798015000000001,0.46455392,0.064420655,0.44303605,0.47291753,0.1490904,-0.0834239,0.14121158,-0.36656940000000005,-0.63511616,-0.33358740000000003,0.22712664,0.006048092,-0.7077276,0.5893241,0.23229752,0.29500654,0.2540866,-0.07189516,0.12703143,0.36422712,0.16289847,0.56508756,0.36757907
Enigma,0.8029062,0.25700839999999997,-0.07274768,0.05309894,-0.4322693,-0.46045512,0.42916402,-0.09862754,-0.50731003,0.16977763,0.15380171,0.06902032,0.8186069,0.10024115,0.47452703,0.7651845,0.41304982,-0.35729042,-0.12975504,-0.008872358,-0.19885142,0.36800522,-0.082550526,0.22767778,-0.067055024
Tinker,-0.13219973,-0.060967392999999995,0.0017140389999999999,0.060129374000000006,0.011526083999999999,-0.60749483,0.31262988,0.114825316,-0.35903856,-0.201428,-0.2881756,0.016245816,0.4085739,0.013287011000000001,-0.23257062,0.4267612,0.13265893,-0.24643075,-0.38812572,0.014113727,-0.17872635,0.5079438000000001,0.26340073,0.4135775,0.30988193
Sniper,-0.039252087000000005,-0.14185727,-0.003265841,0.18133897,-0.011848741999999999,-0.47667876,0.23197976,0.2702381,-0.16110896,-0.32008365,-0.2092047,-0.018762609,0.39903793,0.003307366,-0.23115285,0.3993736,0.21310684,-0.19513527,-0.37149438,-0.03901432,-0.17559627,0.46934018,0.18199375,0.31676550000000003,0.24926881
Necrophos,0.27565807,0.42758019999999997,0.23068094,0.12669352,0.007329916999999999,-0.6659185000000001,0.4683773,0.033773872999999996,-0.40030465,-0.017149419,0.21898703,0.18576309,0.2830843,-0.40265426,-0.087846786,0.73617744,0.21939366,-0.6339994999999999,-0.27948052,-0.41134632,-0.07494852,0.5340067,0.24369071,-0.034754556,0.22881101
Warlock,0.56467795,-0.024397352999999997,0.7799480999999999,-0.14896585,0.026510976000000002,-0.40596282,-0.30338278,1.0801193,-0.8780766999999999,0.15430976,0.32987577,-0.19503132,0.66397774,0.6546759,0.5848892,0.81928194,-0.5397604,-0.15590799,-0.012626587,0.10289368,-0.6423312,-0.50271785,0.15494128,-0.30086428,-0.44434112
Beastmaster,0.38832992,0.7981714,-0.027668922999999998,0.48869628,-0.64429855,-0.45349947,0.71835417,-0.44810134,-0.11179679,0.04042165,0.6831384,0.21180074,0.23368213,-0.44796908,0.22937989,0.9029394000000001,0.64127856,0.061638202999999996,-0.38906634,-0.46575233,0.25080317,1.0725185,0.22703004,-0.15714544,0.31881812
Queen of Pain,-0.36470383,0.06887351,0.2448516,0.04407086599999999,0.23542069,-1.0665258,0.5243547,0.015723247,-0.521107,-0.111621425,-0.51157606,0.26997766,0.61435753,-0.42066279999999995,-0.27783033,0.36071384,-0.033900727,-0.91547745,-0.61536324,-0.05191144,-0.64123744,0.6162262,0.29255506,0.33071724,0.38141096
Venomancer,0.5533939,0.32374638,0.27810767,-0.02793286,-0.018491061,-0.660817,0.33784783,0.21275467,-0.38720417,0.07592718,0.31915802,0.10292084,0.3286513,-0.28080073,-0.011333853,0.81270915,0.16858505,-0.907173,-0.10538641,-0.46734133,-0.13855889999999998,0.19574046,0.28586100000000003,0.10894074,0.19004421
Faceless Void,0.09995807,-0.5706413,0.7686811,-0.044450443,1.0985245000000001,1.4963393,-0.14387672,-0.06911339,0.53498125,-0.713399,-0.5723917,-0.14599359,-0.39796170000000003,-0.024118485,-1.6779706,0.94055146,-0.21600102,0.6755276,0.11290834,-0.7184401999999999,0.5557051,0.47673786,0.46253590000000006,0.5517839,0.58133256
Wraith King,0.5169828,-1.063735,0.31844455,-0.004253548,0.5496536999999999,1.5891665000000001,-0.08022725,-0.60658884,0.335937,-0.37876704,-1.1050293,-0.5353894,0.30000204,0.18771453,-1.2714603,0.936148,0.5815047,1.0227407,0.36098352,-0.14815398,0.6325426,0.4599376,0.15174752,0.7363122,0.41621175
Death Prophet,0.14726119,-0.019511655,-0.14906617,0.27493048,-0.27778724,-0.8631553,0.43422040000000006,-0.20145367,-0.35182112,-0.10479827,-0.34998393,0.13041641,0.83601916,-0.06897955,-0.000387552,0.46648636,0.3383939,-0.6399831,-0.4387655,0.10469615,-0.25302893,0.6501746,0.11624668,0.38195450000000003,0.015863635
Phantom Assassin,0.536049,-1.1030712999999999,0.96786815,-0.010368289000000001,0.94483966,1.4516323999999998,0.0686534,0.024323756000000002,0.8871621,-0.6013653,-1.0187423,-0.5430731,-0.18362196,0.025564233,-1.6708233000000001,0.7689951999999999,-0.014439893999999998,0.40990546,0.43214044,-0.34957448,0.5147718,0.47562784,0.46147543,0.8341713,0.47589493
Pugna,-0.118369065,0.20445898,0.30025830000000003,-0.13000810000000002,0.052933022,-0.7486041,0.5581253,0.08443329,-0.40427804,-0.018237628,-0.053660505,0.3048396,0.50476956,-0.43189615,-0.15906169,0.5855821,0.094939366,-0.80514646,-0.3537706,-0.18235488,-0.43369296,0.40489984,0.24908654,0.19113870000000002,0.38309515
Templar Assassin,-0.6825856,-0.621648,-0.3295721,0.5794956,-0.06760519,-0.5771082,-0.0427352,0.07493462,-0.24717551,-0.5718906,-0.49354184,-0.21803044,0.6323666,-0.078288704,-0.33554932,0.24455339,0.2708693,-0.07219612,-0.6501276,0.12445618,-0.36104354,0.7364212,0.09727464,0.3450513,0.30006436
Viper,0.32271108,0.039911278,-0.1516647,0.4281313,-0.06058234,-0.85900986,0.17094934,0.27129725,-0.14435108,-0.35653847,0.12364475400000001,-0.09865977,0.33988154,-0.18038371,0.03234047,0.53054273,0.33780578,-0.67683536,-0.36772776,-0.21639396,-0.17913793,0.5637935000000001,0.114507854,0.2563859,0.096167825
Luna,-0.081098005,-1.3401573999999998,-0.120410234,0.60454917,0.11258957,1.3060988000000002,-0.49242657,0.030592665,0.38571292,-0.98192745,-0.7604131,-0.5985793,0.497503,0.059896477000000004,-1.3278285,0.6672223,0.5990165,0.74879616,0.15643117,-0.18077439,0.60522693,0.024164893,0.13915755,0.8016382,0.31046018
Dragon Knight,-0.07983912,0.53809464,-0.5955954000000001,0.48367354,-0.3156718,-0.44960022,0.09225934,-0.17872998,-0.27898592,-0.47879177,0.31450054,-0.12789536,0.106350295,-0.023597537000000002,0.16309996,0.6928449000000001,0.61887807,0.64722854,-0.48422092,-0.28654668,0.17964326,1.0033181999999998,0.050992235999999996,0.25958556,0.18842672
Dazzle,0.17854217,0.001720867,0.22708187,-0.051199548,-0.12827824,-0.45325592,0.24355206,0.5023789000000001,-0.44940266,-0.040578897999999995,0.060745235999999994,0.054649542999999995,0.49354154,0.20454160000000002,0.15571117,0.4610068,0.21636818,-0.15886411,-0.07265014,0.00130942,-0.2992114,-0.025397416000000003,0.21691759,0.15292072,0.21565363
Clockwerk,-0.27574465,0.46195105,0.50662464,-0.5613507,-0.2183935,-0.29227653,0.057573225,0.72935647,-0.7205057,-0.31084323,0.08035771,0.64156175,-0.23945087,0.5385951999999999,0.45727825,0.32954463,0.08858411,1.1097763,-0.24382506,-0.1981571,-0.3279287,-0.06046694,0.00275057,-0.15912747,0.40495884
Leshrac,-0.44201654,-0.2324995,-0.18712089999999998,0.41669962,-0.11462122,-0.98727626,0.26695198,0.12300301,-0.21331309,-0.4224568,-0.30689558,0.19906089,0.7853214,-0.3567805,-0.42547783,0.25936142,0.26104414,-0.660399,-0.6184691999999999,0.11540948599999999,-0.28489754,0.7286238,0.15369174,0.4167479,0.1387075
Nature's Prophet,0.51409584,-0.057818454000000005,0.38178563,0.14089888,-0.19862774,-0.33113974,0.5658766,-0.09387665,-0.22054195,0.19608578,0.3532817,0.11468494,0.5669009,-0.42337290000000005,-0.21074389,0.7809606,0.23851195,-0.80963165,-0.051010106,-0.4261508,-0.23643753,0.32215127,0.2897937,0.019818608,0.20649126
Lifestealer,0.33770084,-0.8837200000000001,0.7936327,0.023933012000000004,0.8371832,1.4375528,-0.056520738,-0.114965364,0.64321893,-0.7544288,-0.77182895,-0.41646096,-0.030677587000000003,-0.13844478,-1.583065,0.9022819,0.034123987,0.50925803,0.30785295,-0.45027182,0.6031008000000001,0.42342162,0.33331773,0.56208974,0.43519256
Dark Seer,1.1180268999999998,0.5266456,-0.42592052,0.12416955,-0.08031603,-0.74374175,0.22331104,-0.18387009,-0.5055351,-0.048093643,0.4812322,-0.31165737,0.64217883,-0.41309184,0.16531032,1.1829408000000001,0.4598627,-1.0603,-0.041694686,-0.18230012,0.21658881,0.44870108,0.015958602,0.51149833,0.05948945
Clinkz,-0.08476581,-0.703174,0.43651518,0.24699788,0.35470262,0.41309413,0.26438773,-0.010078015,0.31404775,-0.48572728,-0.44950622,-0.06526824,0.30048323,-0.23028062,-1.1031343,0.4167821,0.13632627,-0.09299903,-0.16364755,-0.14039996,-0.012407159,0.446664,0.24861628,0.46439043,0.51496524
Omniknight,0.34548962,0.1444839,0.5705646,0.12958688,-0.13346381,-0.5058482,-0.25342742,0.84609437,-0.23187943,-0.024333814,0.37558582,-0.2731057,0.43103969999999997,0.26422740000000006,0.678711,0.7905466,-0.761187,0.1197603,-0.37344903,-0.2651894,-0.057162963,0.32823917,0.28901967,-0.47868666,-0.018032027
Enchantress,0.49885914,-0.17575231,0.57533574,0.0695096,-0.1986291,-0.38691694,-0.6125241,1.1957636,-0.75200087,-0.021135876,0.29051882,-0.07589167,0.717695,0.80030894,0.6807643,0.6002586999999999,-0.3293253,0.11685669,-0.15170118,-0.021111015,-0.63823766,-0.37369365,-0.028756099999999996,-0.34782082,-0.4959263
Huskar,0.049670793,-0.06191903,0.09098277,0.013639483,0.021167595,-0.38432148,0.30692497,-0.033781894,-0.26954222,-0.24576451,-0.36403492,0.13867603,0.33342272,-0.048276484,-0.23917241,0.44139016,0.28491652,-0.118772365,-0.28136536,-0.030959643,-0.09915335,0.42235452,0.22079168,0.40558356,0.25129047
Night Stalker,0.46804562,0.76576424,-0.024410756000000002,0.31385398,-0.44111943,-0.5061669,0.4495973,-0.26296753,-0.11678255,-0.13858443,0.37166533,0.322563,-0.043376878,-0.34472787,0.023874207999999997,0.8534202,0.45696909999999996,0.10759892,-0.33144888,-0.4014957,0.29617178,1.0173226999999998,0.15108745,-0.07207493,0.2856765
Broodmother,0.011039175,0.20064457,-0.5510046,0.46115290000000003,-0.05357595,-0.53875744,0.002045412,-0.1025631,-0.33460096,-0.6070623,0.22198667,-0.44147316,0.1808174,-0.08695059,0.11095798,0.738779,0.66259074,0.17433898,-0.4167746,-0.13073334,0.29424490000000003,0.67951256,0.124028616,0.43636328,0.08294083
Bounty Hunter,0.2092708,-0.020113284,0.22098698,-0.21473128,-0.21635957,-0.2538302,0.19572172,0.29716864,-0.50544363,-0.106795415,-0.15612802,0.11451328,0.3325913,0.2599321,0.22031729,0.46221850000000003,0.3489758,0.20021735,-0.12494100000000001,0.005813866,-0.11136701,0.009820545,0.15668677,0.11029704,0.16410008
Weaver,0.40340322,-0.79655784,0.36658567,0.12777796,0.15666755,0.71042186,0.26603433,-0.020344306,0.24063659,-0.25628477,-0.68542105,-0.17399786,0.53721166,0.12470899999999999,-0.6863064999999999,0.4993741,0.26791766,0.15260114,0.17855443,-0.04672189400000001,-0.010862337,0.20862965,0.16140525,0.44689283,0.29704195
Jakiro,0.42876220000000004,0.041958882999999995,0.8784938,-0.17823988,-0.30827013,-0.20681418,-0.20902307,0.89848095,-0.7611494000000001,0.27714303,0.3907943,0.23946628,0.7379197,0.5161855,0.40726793,0.7466363,-0.47500324,-0.07475525,-0.11079074,-0.21643773,-0.731999,-0.38436809999999993,-0.025132291,-0.54884166,-0.23646125
Batrider,0.10398058,0.25607179999999996,-0.07987916,0.20095544,-0.073384486,-0.9211571,0.23428449,-0.04485064,-0.39504704,-0.21176985,-0.13045393,0.18906489,0.514197,-0.1808608,0.072816685,0.5242600000000001,0.27305546,-0.62137496,-0.49947548,-0.01887566,-0.25402415,0.7338996,0.08107999,0.34664682,0.1793072
Chen,0.32802036,-0.12085604,0.8899982,-0.05042728,-0.23358239,-0.37725073,-0.2681255,0.92392755,-0.59627753,0.22958034,0.41412076,-0.0038049309999999997,0.64017045,0.45279929999999996,0.5866169,0.6498322,-0.41496748,0.031821277,-0.19324572,-0.1912347,-0.6871828000000001,-0.1888681,0.07906446,-0.5726318,-0.1647318
Spectre,0.22051536,-0.8648899999999999,0.87961876,-0.11984877,0.95109624,1.7971401000000002,-0.22550331,-0.16595246,0.6189834,-0.7230398,-0.87516356,-0.15469772,-0.14608732,-0.2830969,-1.8897659,1.0824851999999998,-0.01114362,0.39124677,0.35456544,-0.7943899,0.6811716,0.23921610000000001,0.3077748,0.7675405,0.61853015
Ancient Apparition,0.58229816,-0.5248611999999999,0.2868853,0.10884413,-0.24429387,-0.53890836,-0.83224213,1.1920758,-0.88896304,-0.26244736,0.29059959999999996,-0.50940275,0.99346966,0.8248609,0.8087443,0.7512429,-0.16301155,-0.064178586,0.008936109,0.15902774,-0.46256423,-0.622963,0.15505165,-0.094089545,-0.8567763
Doom,0.22638449,0.7792441999999999,0.23367915,0.19956659,-0.01563917,-0.8390333000000001,0.44649953,-0.18305996,-0.3186511,-0.32930782,0.3898448,0.026494315,-0.16021949,-0.53336763,0.0329,0.8389931,0.38072842,-0.12031603,-0.3398908,-0.35732105,0.06577283,0.8262818000000001,0.19355516,-0.10652047,0.31202486
Ursa,0.57497275,-1.0647316999999998,0.46520713,0.022248677999999997,0.451437,1.3366381999999999,0.06649763,-0.4857723,0.36534336,-0.39289206,-0.8974447,-0.48710945,0.26463845,0.10051151,-1.229155,0.86341083,0.51866984,0.5815130999999999,0.49757120000000005,-0.14571233,0.504464,0.3002692,0.17781262,0.71935904,0.4458197
Spirit Breaker,-0.06599168,0.64878094,0.3778145,-0.63265145,-0.45069593,-0.24989343,0.18216777,0.4717012,-0.5628350000000001,-0.14912544,-0.064343825,0.9009815999999999,0.056223825,0.35159335,0.36225227,0.40687233,0.32110548,0.92229843,-0.19145882,-0.15953147,-0.17041259,0.041462127,-0.021687413,-0.1787579,0.39064085
Gyrocopter,0.27746156,-0.7534890000000001,-0.08007403,0.61187553,-0.45198292,1.3649478000000002,-0.30382612,0.28827843,0.5323294,-0.73436165,-0.9254679,0.4244951,0.7127237,0.30751193,-0.9022268,0.42893687,0.382334,0.49363959999999996,-0.0768081,-0.0935876,0.098058835,0.18831281,-0.3482385,0.5709976999999999,-0.11225472
Alchemist,0.39130282,-0.5586943,0.29378393,0.17587836,0.107658245,0.5136955,0.39818388,-0.4862996,0.16406918,-0.24350221,-0.46112037,-0.22189537,0.3126199,-0.11716496,-0.49449497,0.64632756,0.38563386,0.36111486,0.022886911,-0.16399038,0.27012240000000004,0.5227265,0.25546685,0.3178006,0.42162429999999995
Invoker,-0.7043495,-0.068637565,-0.3081705,0.32251725,-0.04110075,-1.0312282,0.029571808999999998,0.32305858,-0.50500995,-0.6209696,-0.5393621999999999,0.07864455,0.5616717,-0.11142162,-0.16307113,0.20205301,0.08315631,-0.44847852,-0.85522276,0.120842725,-0.49143496,0.6736064,0.22918826,0.5577612,0.1078518
Silencer,0.30390078,-0.0858383,0.48683894,-0.16331227,-0.14477246,-0.46477574,0.041203365,0.82931274,-0.51357734,-0.03316559,0.13200296,0.18057534,0.54164344,0.21258217,0.20375319,0.53138936,-0.21356109999999998,-0.42521152,-0.22680838,-0.09708801,-0.45780950000000004,-0.21551485,0.17461753,-0.053899962,0.032339203999999996
Outworld Destroyer,0.05947774,-0.037075657000000005,-0.039856687,0.20927905,-0.18684815,-0.7945646,0.4617517,0.03638856,-0.29954317,-0.06967206,-0.4081656,0.069036715,0.6530924,0.05178894,0.024780845,0.33064273,0.19228859,-0.49211475,-0.47638488,0.15796016,-0.4228082,0.76035047,0.12551835,0.2565524,0.22288847
Lycan,0.32012758,-0.29876062,0.34463903,0.08563585,-0.16578954,0.24804747,0.23750818,-0.46569609999999995,-0.22287038,-0.030619947,-0.4328178,-0.04802793599999999,0.5912849,-0.09169959,-0.22243355,0.61788774,0.32554108,0.21281323,-0.12603694,0.00891614,-0.07792907,0.47131940000000005,0.028854545,0.17613031,0.30456778
Brewmaster,0.43017089999999997,0.40786007,-0.19626652,0.44579253,-0.5743012,-0.45459434,0.12642477,-0.050388895,-0.3262874,-0.16764790000000002,0.47029750000000003,0.10920896,0.25570694,-0.10929664,0.40002373,0.8217923,0.5736325,0.24329752,-0.34276944,-0.2990667,0.19650997,0.6540664,0.047086595999999994,-0.08772966,0.048234645
Shadow Demon,0.12685712,-0.16992445,0.19606301,-0.05241557,-0.3437686,-0.42059857,-0.06375644,1.1032708,-0.24777865,-0.11467936,0.3071773,0.10787934,0.28102055,0.43957236,0.4494584,0.26754335,0.06750159,0.3842616,-0.07454824,-0.01938397,-0.519411,-0.15720023,0.17201231,0.08669195,0.19175577
Lone Druid,0.050733167999999995,-0.486299,0.39583156,0.0027401590000000003,0.21394977,0.3622324,0.083221115,0.027998727,-0.014575975,-0.3230715,-0.37127966,-0.068338335,0.28982820000000004,0.015306566,-0.58436394,0.49960974,0.23061347,0.15180835,-0.05598337,-0.20743263,0.015692731,0.29199684,0.18918310000000002,0.33087894,0.4064782
Chaos Knight,0.2881478,0.26283816,0.023900464,0.18854721,-0.08554930000000001,0.27568284,0.24505755,0.070527166,0.2168542,-0.34053636,0.08966396,0.1936315,-0.18883753,-0.033284277,-0.3450189,0.6878746,0.2547237,0.57631886,-0.14009091,-0.43327326,0.25148484,0.6779284000000001,0.17655548,0.22523624,0.27334493
Meepo,0.037417926000000004,-0.08762034,0.19591267,0.05979882,-0.03616471,-0.22405104,0.19362195,0.1400762,-0.21281458,-0.27475327,-0.11803713,0.09189684,0.33458665,0.026527388,-0.16336013,0.47855290000000006,0.28541192,0.08010751,-0.17792843,-0.106276564,-0.08604534,0.33770403,0.13840872,0.23492377,0.27924702
Treant Protector,0.13041443,0.000194683,0.8869189000000001,0.10221246,-0.46509144,-0.25060309999999997,-0.26657742,1.0467068000000002,-0.42658502,0.036788426,0.51138353,0.19343616,0.117751196,0.57171565,0.59630376,0.43531796,-0.20671718,0.73355156,-0.25242817,-0.21465822,-0.7326891,0.003925945,-0.015003952,-0.6472802,0.08717805
Ogre Magi,0.15534379999999998,-0.07018683,1.0461984,-0.038857292,-0.6273333999999999,-0.18830097,-0.2237063,1.0323153,-0.42464593,0.26665372,0.48462737,0.21680447,0.5126195,0.66592956,0.61562294,0.5270706000000001,-0.5356783,0.5830398,-0.31592209999999993,-0.19465179999999999,-0.78249615,0.03125384,0.021845825,-0.7521587,-0.10337112
Undying,0.4504402,-0.32098135,1.1646698999999998,0.31530187,-0.6075255,-0.32625738,-0.32437316,1.162136,-0.47896418,0.1345739,0.32812923,0.24173328,0.7091123,0.7131236,0.75389916,0.45916715,-0.59226555,0.31628668,-0.37313557,-0.19281389,-0.9755718000000001,-0.011783324,-0.047025356,-1.0633638,-0.45297837
Rubick,-0.08701052,0.03287147,0.24391220000000002,-0.8163372,-0.14134748,-0.61032903,0.7032432,1.3698342,-0.28863597,-0.30929120000000004,0.037509695,0.83113045,-0.085525,0.2101556,0.15237366,0.019859875,0.42462570000000005,-0.20370097,0.038888432,-0.07162876,-0.4261747,-0.7674363000000001,0.5002598,0.61577654,0.69946027
Disruptor,0.55901575,0.013169898999999999,0.6917688,-0.06560599,-0.19249514,-0.27501909999999996,-0.23835228,1.1478277,-0.7542229,0.28942806,0.26759622,0.19413719,0.74744517,0.7887390000000001,0.5486818,0.64739513,-0.42596748,-0.03792119,-0.1606569,-0.122184105,-0.65569746,-0.4315905,-0.061937597000000004,-0.2501387,-0.41214514
Nyx Assassin,-0.14569941,0.43173075,-0.2783616,-0.72495645,-0.48643854,-0.2729071,0.06334343,0.6773617,-0.82874584,-0.41438153,-0.13400552,0.5855670999999999,0.027695386000000002,0.7517986999999999,0.8112087,0.25543773,0.66768736,1.4657437,-0.057295565,0.11549807,-0.111383215,-0.33332083,0.05180916,0.57115585,0.3238248
Naga Siren,0.21024972,-0.6282937,0.6221171999999999,-0.22797553,0.4284893,1.2034593999999998,0.033780694,-0.39294070000000003,0.09784941400000001,-0.48451325,-0.8045906,-0.20025568,0.16928001,-0.012667623999999999,-1.1783206,0.6648588000000001,0.39124545,0.5456268,0.17270699,-0.35766774,0.46468183,0.19744825,0.24684122,0.594333,0.59769905
Keeper of the Light,0.9192469999999999,-0.5098866,0.22290228,0.05957049,-0.28681833,-0.34651452,0.041084867000000004,0.9622268,-0.5015811,0.13244256,0.06550008,-0.1976591,1.0022908000000001,0.72838265,0.7559861999999999,0.5175447,0.0608148,-0.07062298,0.21171275,0.263048,-0.40699235,-0.5094618,0.04284223,-0.08081578,-0.059982247999999995
Io,0.16007146,-0.7132986,0.48267403,0.18074001,0.17052123,-0.92590284,-0.15147097,1.1491844999999998,-0.06888201,-0.06820549999999999,0.26633826,-0.8678059000000001,0.31089842,0.5038464,0.7074254,0.46347170000000004,-0.75716394,0.000661725,-0.15852529999999998,0.07331858599999999,-0.06344180599999999,0.33036026,0.70086753,-0.09314779,0.36430967
Visage,-0.00548172,-0.06413446,0.09281590599999999,0.12284849999999999,0.011027552,-0.41829452,0.15549645,0.32196996,-0.41546590000000005,-0.261799,-0.06690067,0.034216803,0.41383275,0.009263346,-0.044493653,0.41627648,0.14770657,-0.17230365,-0.32186404,-0.057232912999999996,-0.23271063,0.24687941,0.14474419,0.24139005,0.18971688
Slark,0.4085718,-0.8483975,0.6883401,-0.18413076,0.5004618,1.4334613,0.09311747,-0.25958237,0.39717332,-0.4370385,-0.93608737,-0.019405235,0.06601505,-0.054761194000000006,-1.4699353000000002,0.83474964,0.17030628,0.43191013,0.32757118,-0.35395712,0.46099144,0.29025477,0.16817622,0.6902285,0.54135865
Medusa,0.0662957,-1.3910915000000001,0.14934209,0.6012619,0.43888628,1.2437295,-0.38761637,-0.069779076,0.45748252,-0.7789293,-0.63497335,-0.5377769,0.5722329,-0.041493196,-1.3849835,0.6982335,0.3227129,0.5250338999999999,0.12144286,-0.08895029,0.5264168,0.15174288,0.18858333,0.637372,0.40485573
Troll Warlord,0.40169720000000003,-1.1369686,0.6424976,-0.05644418,0.39342543,1.2668403,0.23882303,-0.33246820000000005,0.5176550999999999,-0.20958567,-0.8538806000000001,-0.2927518,0.270413,-0.08247845,-1.3819583999999998,0.74984527,0.41465297,0.43864262,0.39637282,-0.19292887,0.5601935,0.32750002,0.36057934,0.6603009,0.5175772
Centaur Warrunner,0.36518356,1.0693451,-0.4169366,0.6467185999999999,-0.5449908,-0.6552437,0.47270155,-0.34556612,-0.15296274,-0.25487575,0.8589234,0.05988236,-0.09406087,-0.51102614,0.26908213,1.0870578000000002,0.8276128,0.31807340000000006,-0.35285655,-0.58050954,0.5689022,1.1324682,0.27556090000000005,-0.18416667,0.276543
Magnus,-0.07738803,0.59809804,-0.08750185,0.16687794,0.08570115,-0.58587873,0.3557007,-0.11728987,-0.48105606,-0.5627979000000001,0.08517153,0.09208244,0.15384775,-0.31341743,-0.14898635,0.6890983,-0.031336453,-0.16182812,-0.7181179,-0.3513388,0.08257299,0.61159825,0.31768209999999997,0.14020763,-0.006712764
Timbersaw,0.75725085,0.6787263000000001,-0.46108285,0.5667755,-0.5036630999999999,-0.66097367,0.2703547,-0.37763807,-0.29274493,-0.24559218,0.57991785,-0.18653789,0.28552353,-0.40341940000000004,0.35078309999999996,1.0661273,0.9430919,-0.17251419,-0.31632575,-0.3442617,0.48125290000000004,0.903479,0.05877536,0.096999906,-0.044513524000000006
Bristleback,0.26346913,0.08342082,-0.4118924,0.22069971,-0.43216400000000005,-0.27468148,0.11805331,-0.46582246,-0.33941940000000004,-0.34910145,-0.14434557,0.17728132,0.3287373,0.05629138,-0.16353555,0.5817581999999999,0.6955295,0.3739245,-0.33565256,-0.016909232,0.13243078,0.79982096,-0.039736099999999996,0.3811672,0.09451847
Tusk,-0.19835494,0.5834087,0.33453920000000004,-0.525995,-0.52571046,-0.13020556,0.39626908,0.55672145,-0.52899146,-0.3133973,0.002924081,1.0223396,0.003694905,0.29789022,0.5450235,0.23664166,0.507777,1.0086266,-0.23234981,0.01270413,-0.30399302,-0.032566484,0.014603178,0.034650232999999996,0.56580037
Skywrath Mage,-0.11311725,-0.23826323,0.022096703,-0.26810274,0.1436834,-0.8355281999999999,0.25841457,1.4892398999999998,-0.42198786,-0.5805723,0.21534611,0.23443681,0.019961579,0.25426602,0.19773419,0.08503224,0.41499832,-0.34275436,-0.05386344,-0.06855703,-0.42921442,-0.77728844,0.517224,0.4752309,0.3629408
Abaddon,0.39577812,-0.3325761,0.097551994,0.6182026999999999,-0.6690775,-0.25136372,-0.5395095999999999,0.8786379999999999,-0.40263313,-0.21786846,0.27625279999999997,-0.37631452,0.59191555,0.77589554,1.0354655000000001,0.5036596999999999,0.25339702,0.9225620000000001,-0.10013181,0.17089921,-0.34677276,0.010173045,-0.032271083,-0.25209373,-0.28149778
Elder Titan,0.2608873,-0.1429066,0.62775725,0.26184496,-0.55555946,-0.26969016,-0.33721063,0.90493065,-0.33767387,-0.117774054,0.17312892,0.20287846,0.44199609999999995,0.58225137,0.64275205,0.49208959999999996,-0.17971832,0.541447,-0.30956173,-0.08703589999999999,-0.5393972,0.08183994,0.020900724,-0.57470906,-0.27778113
Legion Commander,0.45801997,1.0144249,0.02587053,0.429335,-0.28757906,-0.5831430999999999,0.51202214,-0.27071714,-0.17729178,-0.10446317,0.7961083999999999,0.18589689,-0.11131589,-0.4355147,0.12515013,1.025002,0.57079357,-0.087064415,-0.30716777,-0.71188325,0.31891197,0.9966345999999999,0.20750631,-0.16498537,0.373373
Techies,0.03660076,0.07535357,0.11223026,-0.15139794,-0.020688925,-0.5325873000000001,0.17417814,0.7047068,-0.36512059999999996,-0.3000854,0.067678586,0.17984058,0.1869075,0.16388534,0.11268158,0.36986396,0.2906087,-0.110708795,-0.17179282,-0.13627525,-0.25067565,-0.1003451,0.21759795,0.33278492,0.2748751
Ember Spirit,-0.5133942,0.16913918,-0.029440425,0.0858946,0.14522316,-1.0587008999999998,0.03168524,-0.017713828,-0.48970407,-0.35843107,-0.5631105,0.11864529,0.32476547,0.009549151,-0.29786503,0.20621622,0.06343919,-0.15622291,-0.75941604,0.20400767,-0.46817806,0.9996624,0.118253626,0.5385671999999999,0.26329544
Earth Spirit,-0.39201978,0.74465847,0.39656028,-1.1828683999999998,-0.23040639999999998,-0.44964114,0.5466373999999999,0.4616585999999999,-0.85391605,-0.39037097,-0.17292906,0.93076783,-0.13264926,0.29500985,0.52835315,0.16023773,0.59061384,1.0905162,-0.009326381,0.09796027,-0.17140199,-0.24425843,0.15479626,0.3021506,0.8176295
Underlord,0.5056122000000001,0.75825256,0.22339475,0.29380623,-0.38404462,-0.6519845000000001,0.55934656,-0.32237613,-0.09176682,0.010713806999999999,0.7386001,0.12217701,0.09152456,-0.66504055,0.04914581,1.0674652,0.44092349999999997,-0.27324513,-0.16013019,-0.6145403,0.25615117,0.92449826,0.23299801,-0.25541484,0.30317143
Terrorblade,0.13821003,-1.4337772,0.48774263,0.3189593,0.6163403000000001,1.6436370999999999,-0.10653367,-0.26052722,0.63912123,-0.7473414,-0.8521735,-0.5365755999999999,0.275042,-0.22109222,-1.8720968,0.84535986,0.36072659999999995,0.56718653,0.27201054,-0.35737476,0.73383147,0.11742815,0.2933058,0.7884681,0.56291896
Phoenix,0.19914515,-0.25788435,0.19278798,-0.049885295,0.008086584,-0.8075521999999999,0.24429455,1.1039771999999999,-0.41570967,-0.32246727,0.18705812,-0.06174897,0.3946595,0.11877961,0.33076525,0.27027237,0.62399787,-0.547499,0.15128538,-0.039856922,-0.31451672,-0.75009966,0.51564646,0.30340666,0.15384835
Oracle,0.63740844,-0.22909892,0.84979373,-0.06979767,-0.50943154,-0.20240379999999997,-0.42216682,0.9847734,-0.9513651,0.38062787,0.15831651,-0.21710716,1.12901,0.9502776,1.0805782,0.70058906,-0.5841758,0.3651021,-0.032935362,0.17487606,-0.87364566,-0.32265666,-0.030244026,-0.44834915,-0.6125325
Winter Wyvern,0.24659699999999998,-0.16103270000000003,0.22424138,0.17361924,-0.2333029,-0.41494894,-0.64635956,1.187916,-0.72005886,-0.17112038,0.27224138,-0.36354157,0.5973493000000001,0.8456179,0.6513651,0.52352273,-0.15254709,0.49913415,-0.15489013,0.1495652,-0.41620687,-0.25671896,0.03047448,0.023293487999999998,-0.45699129
Arc Warden,0.065424725,-0.9340004999999999,0.4777175,0.32468936,0.48805982,0.89398134,-0.002303964,0.07789464,0.37093085,-0.52476573,-0.53989536,-0.28719762,0.41146353,-0.11386118,-1.0737768,0.62561643,-0.004298435,0.08452168,0.06477369,-0.3226766,0.09981564400000001,0.14233536,0.26131898,0.46088707,0.44030222
Monkey King,0.19995242,-0.50927436,0.22580233,0.068714224,0.022532517000000002,0.3207236,0.2635695,-0.19546168,-0.033366896,-0.11607376,-0.5996672,-0.08815735,0.48867,-0.001749774,-0.5531807,0.45632207,0.3746395,0.2512119,-0.03554623,-0.015960682,0.049709607,0.48867694,0.14147498,0.41357684,0.31093973
Dark Willow,-0.071122274,-0.1491085,-0.26918918,-0.2931767,-0.22802623,-0.62886775,0.29827163,1.3440158000000002,-0.3140347,-0.5343654999999999,-0.005100689,0.3301658,0.10824283,0.52235866,0.48086053,-0.06760906,0.6592420999999999,0.24771892,-0.11798541,0.0413678,-0.33163366,-0.6248212,0.34793976,0.80580735,0.33548859999999997
Pangolier,0.20255761,0.5164915,-0.027368963,0.0650088,-0.46106607,-0.5192531,0.37394366,-0.2542348,-0.35059650000000003,-0.22374699999999997,0.35746437,0.112572506,0.26049206,-0.16160932,0.22750601,0.6085435,0.7174165,0.34677458,-0.26368645,-0.0829505,0.15811355,0.64742714,0.12914628,0.06780985,0.42242026
Grimstroke,0.6465201999999999,-0.1726951,0.33296216,-0.28028387,-0.21251915,-0.1861557,-0.33708885,0.81842095,-1.0790623,0.120633185,0.07672999,0.13696049,0.962393,0.7951928,0.60610014,0.739646,-0.22019908,-0.27988145,-0.116880774,-0.020255184,-0.36868390000000006,-0.5787318,-0.02461185,-0.028293118,-0.5098931
Hoodwink,0.21394782,-0.34300342,-0.8207473,0.15314358,-0.23168070000000002,-0.635644,-0.5482433000000001,1.5329739,-0.41603684,-0.8005795,0.29567978,-0.30805868,0.07260932,0.80512655,0.6798194000000001,0.24278179,0.90535885,0.81668067,0.03840004,0.20866331,-0.05378716,-0.5491364000000001,0.048916917000000004,0.7956088000000001,-0.008699990999999999
Void Spirit,-0.5430147,0.23143536,0.14258188,0.078627005,0.106315315,-1.0331185999999999,0.34664926,-0.20603824,-0.5894199999999999,-0.2119111,-0.65039355,0.3146589,0.49544483,-0.16185807,-0.18005878,0.25187302,0.015306186999999999,-0.09980492,-0.75177604,0.21153046,-0.5240968,1.0342895,0.10397146,0.24788785,0.39560813
Snapfire,0.09359381,-0.13068639,0.2579451,-0.32057129999999995,0.036944095,-0.78837365,0.042204343,1.1010361000000002,-0.38991413,-0.30066615,0.11560535,0.22784945,0.26501998,0.10294561,0.013125083000000001,0.41647652,0.023405794,-0.68288213,-0.20916145,-0.13753892,-0.41787168,-0.29449388,0.39884815,0.2589096,-0.08252023
Mars,0.27129179999999997,0.98325884,-0.21547002,0.63015485,-0.6562102,-0.49860337,0.41463885,-0.38429397,-0.11177636,-0.20248489,0.8215948000000001,0.06302716,-0.18771963,-0.27636279999999996,0.12747726,0.90057474,0.4975526,0.48229885,-0.6612055,-0.6886310999999999,0.49179542,1.3497416000000002,0.27729824,-0.20157686,0.32433107
