Heroes,0,1,2,3,4,5,6,7,8,9,10,11,12,13,14,15,16,17,18,19,20,21,22,23,24,25,26,27,28,29
Anti-Mage,1.1489073,-0.7496591,-0.13115506,-0.22597288,0.71201366,0.26015103,-0.50679606,-0.5298451,0.24937296,0.422463,0.21943663,0.21937156,0.6762868,-0.0746561,-0.33723742,-0.51299924,0.27200285,0.8907776,0.08147105,0.40036994,-0.17865635,0.4402108,0.039685305,0.2756053,0.5751178,-0.19144087,0.9181441,-0.46612194,0.68686527,-0.8030955
Axe,-0.53372127,0.4859395,0.87713647,-0.38003382,-0.31743485,0.76029617,0.534175,0.6616912,-0.08224079,-0.30891597,0.5250565,-0.33756334,-1.2025461,-0.67157084,0.35597804,-0.24289486,-0.629146,-0.37401718,0.4912612,0.14064768,-0.583835,-0.9392749,0.8891286,1.0288013,0.112419285,0.1930421,0.1306254,0.074856594,0.15405677,-0.30582276
Bane,-0.634534,0.1524187,0.53240556,-0.047306288,-0.27720198,-0.38179407,0.43938038,0.26404202,0.5321423,0.9542782,-0.1842655,0.19870707,1.3284833,-0.35838962,-0.71111816,0.45370758,0.266485,-0.32440636,-0.051817436,0.12962644,0.73621625,0.11090759,-0.074504204,0.6768292,0.39387774,0.3040763,-0.47482085,0.37739092,0.37845317,0.22020146
Bloodseeker,0.018746115,-0.08584563,0.4292416,0.13487071,0.41228527,-0.014866911,0.056012474,0.18572856,0.5090698,-0.07893076,-0.13268459,0.103156194,-0.27813604,-0.22497596,-0.42097774,0.25478327,-0.3979417,0.54461545,0.3589091,-0.6024768,-0.2360584,-0.6469166,-0.31669155,0.63660955,0.5891671,0.76569974,0.7445786,-0.011655157,-0.18404923,-0.17333597
Crystal Maiden,0.40513712,0.13025281,0.7712743,-0.09517782,-0.024872882,-0.121007115,0.41195652,-0.025165094,-0.13355789,0.32390657,0.43633482,0.045934353,1.4768486,0.3576468,-0.024101065,0.27880841,1.3878288,0.17341779,-0.23508376,-0.03520478,-0.10436078,0.09153392,-0.56359273,-0.111186355,0.07077395,0.43714714,-0.46328494,0.52685034,0.03496006,0.30791909
Drow Ranger,0.80519134,-0.6803178,-0.34438786,-0.29295206,1.2988546,1.1312883,-0.28415567,-0.4530144,-0.15746807,0.5728857,-0.14553031,0.3995346,0.28559512,0.7179203,-0.5648198,0.37505898,0.6267638,0.9533362,-0.5703349,-0.35188568,-0.43040407,-0.21218105,-0.32069635,0.906619,0.2205258,0.07076172,1.4897333,-0.95453614,-0.21550201,-1.2449046
Earthshaker,0.5339625,0.024235684,0.46737587,1.4633805,0.32972708,-0.6455679,-0.6251467,0.11831295,-0.5639748,-0.9953203,0.6597119,0.04271122,0.42676437,-0.12886009,0.6622528,-0.050987393,0.25504607,-0.43450096,-0.05591747,0.25499696,0.66250813,0.31760627,0.94000757,0.1797276,0.09669572,0.35547867,-0.47786984,0.42812693,0.98579997,-0.83253527
Juggernaut,1.035012,-0.7702764,-0.30943802,-0.640378,0.5108559,0.54225695,-0.69454145,-0.6609008,0.21578129,-0.25367364,0.6877321,0.0456598,0.6950985,0.015140254,-0.8443545,-0.45661014,0.08362701,0.32230616,0.18583126,0.2774118,-0.27021104,0.28395593,0.16730228,0.4438291,0.8386096,-0.17224707,0.78096676,-0.34825295,-0.4316961,-0.9618871
Mirana,0.32246783,-0.1824327,0.40503442,0.47451243,0.94122386,-0.016453747,0.60977876,1.0695667,-0.4152468,0.66211283,0.43422288,0.4216972,0.27158952,-0.2428708,0.6049609,0.15391003,0.14285642,0.82275283,-1.0821081,0.4048785,0.15628953,0.08504127,-0.04439998,-0.41843146,-0.44314325,-0.6772564,0.03738088,0.75763714,-0.5099393,-0.6456355
Morphling,-0.37519622,-0.5147276,0.3581059,-0.5592729,0.41979602,0.008980921,-0.60761565,-0.53875864,-0.001673978,-0.06025177,0.07673558,0.3373275,0.36089396,0.040488407,-0.73022413,-0.31856704,0.17248024,0.5056994,-0.5296845,0.25880656,-0.053556476,0.21721476,0.11525483,-0.06567964,0.5044571,-0.17836422,1.337149,-0.584833,0.11094502,-0.8640931
Shadow Fiend,-0.4783962,-0.14372982,0.3601489,0.49615133,0.21579947,-0.35767457,-0.10678483,0.16743544,-0.45775104,0.053643636,0.50052166,-0.27065322,0.362338,0.16596365,-0.07858451,0.035565224,0.46337476,-0.29872352,-0.9279341,-0.077629,0.2548819,-0.30703372,0.27486056,0.013330617,-0.12416645,0.88391954,0.14528891,0.56669253,0.036752097,0.45308596
Phantom Lancer,0.66811514,-0.8613803,-0.10576891,-0.3857748,0.54285926,0.014404802,-0.69693744,-0.6681708,0.41748318,-0.069693826,0.5502965,0.37732455,0.59885764,-0.22719176,-0.72958195,-0.084365055,-0.43533453,0.6272254,-0.05632869,0.68100274,-0.0414243,0.5711664,0.72398883,0.12523396,0.81245,-0.2453031,1.0622633,-0.35268977,0.30765268,-1.0200274
Puck,-0.5175346,0.38450557,0.36220726,0.030209415,0.13927864,0.2519245,0.001115963,0.27316573,-0.67931455,-0.22050487,0.3446239,-0.049473897,-0.23541881,-0.76799196,-0.02717408,-0.33728442,0.08845531,-0.040170763,-0.87633914,0.3695691,-0.23695599,0.037146147,-0.42677015,0.3023025,-0.024510479,0.6370141,0.42126745,0.8102205,-0.8105032,0.7276303
Pudge,-0.32149982,-0.2703935,0.036922846,0.07961462,0.021671122,0.31109685,0.1489861,0.27657726,-0.05078167,0.2782386,0.2559267,-0.073962264,-0.4042753,-0.308913,-0.067655906,-0.07481821,-1.0239881,0.047597248,0.31093368,0.6405119,0.07666393,-0.9789168,0.32393906,0.9846726,0.26147035,0.21228372,0.7159954,0.24400885,-0.20671451,0.12675548
Razor,-0.2725433,-0.36668897,0.045220837,0.068118125,0.045713432,-0.1761908,0.010855654,0.22431478,-0.33192003,0.12666366,0.3310196,-0.29547226,0.00101932,-0.43397647,-0.33290967,-0.1575215,-0.59627414,-0.12367924,-0.75903076,0.2122813,-0.029532678,-0.07906532,0.058388487,0.073229305,0.08145375,0.4941858,0.92181873,0.6762046,-0.21067016,0.37667516
Sand King,-0.68876415,0.73533094,0.83085465,0.33565345,-0.41917825,0.63010997,0.47333658,0.619535,-0.40075877,-0.09337491,0.2605016,-0.39198095,-1.0327382,-0.6284616,0.19896953,-0.026622768,-0.51299846,-0.38467076,0.5816998,-0.19796874,-0.17623971,-1.1037428,0.10066619,1.3549472,0.026886322,0.470652,-0.069259904,-0.34568688,0.34097084,0.22114787
Storm Spirit,-0.7418419,0.17682871,0.38602242,0.3137351,0.2574007,-0.059945818,0.3387847,0.5531773,-0.6226506,0.07135198,0.22198914,-0.10061952,0.09222547,-0.69617474,0.4245019,0.18669318,0.26307252,-0.10577482,-0.50030625,0.34397528,0.51925033,-0.2887551,-0.82266986,0.53633046,-0.107137345,0.4662872,0.018081436,0.09904288,-0.25576955,0.70795214
Sven,0.8938525,-1.4534583,-0.19781259,-0.35469723,-0.05411036,0.298789,-0.17134729,-0.19301371,-0.28223345,0.6600417,-0.7253938,0.7133596,0.18963684,1.0201432,-0.48108798,-0.30615726,-0.13087553,0.70642,0.30912945,-0.28375545,0.24928094,-0.12809585,-0.9560104,1.336553,0.4690366,-0.13304494,1.9016248,-1.18163,0.3987501,-0.88522035
Tiny,0.18360527,-0.3358787,0.18230799,0.80497307,0.4154193,0.5913465,0.5522084,0.23816048,-1.1342279,-0.23573415,0.081053294,-0.35927868,-0.37910822,-0.19244975,0.8168782,-0.646796,0.43856588,0.29195604,0.083339505,0.37467086,0.3766651,-0.18337812,-0.47279683,0.48385978,-0.15333644,-0.22229977,0.5548674,-0.41042697,0.8942565,-0.34602344
Vengeful Spirit,0.3460874,0.09330644,0.94540584,0.26849025,0.17652318,0.11739376,0.9036316,0.85664034,0.49789566,1.0176015,0.14182508,-0.35793543,0.6644674,0.2483983,0.59450144,0.5311035,1.1016519,0.79053915,0.74094236,-0.2586483,0.7797856,0.2362073,-0.55354947,0.40916383,0.7433531,0.40470636,-0.49398643,0.09954101,0.2466788,0.17681146
Windranger,0.006394186,-0.13131928,0.44691432,0.78999805,0.1822371,-0.090140834,0.59906536,0.6260612,-0.5883634,0.44876805,-0.07644213,-0.11515664,0.030626327,-0.12741624,0.59159803,0.22998258,0.24807324,0.3996594,-0.51205915,-0.10033479,0.47690147,-0.510211,-0.75335443,0.2858432,-0.3281425,0.0768,0.24940099,0.33052784,-0.3793093,-0.1282213
Zeus,0.21602744,-0.1127587,0.3182532,0.53068537,0.6614357,0.040846393,0.59043914,0.7988989,-0.7521146,1.0445994,0.20852232,-0.4687849,0.16963404,0.21374929,0.535589,0.16920415,1.2091304,0.44325137,-0.54501164,-0.20003688,0.60260224,-0.5714182,-0.69299746,0.39903742,-0.26871043,0.18081024,-0.035868406,-0.06283401,-0.06508961,0.5237415
Kunkka,-0.78167534,0.29770562,0.43591836,0.51986164,0.24544854,-0.08989875,0.062464595,0.58421564,-0.42637748,-0.05772277,0.43781093,-0.24240035,0.0968377,-0.35300845,0.37528434,0.23810805,0.24937718,-0.08037698,-0.15809505,0.34762156,0.82061917,-0.15935925,-0.051121894,0.7422568,0.2093578,0.35428044,-0.1805244,0.08822959,0.29212043,0.5562743
Lina,-0.26387995,-0.44809878,0.3396736,0.28426534,0.80715847,0.3843798,1.0949925,0.5844591,-0.6519187,0.9329775,0.08091725,0.42392027,-0.22618663,-0.47618395,0.7534819,0.16999352,-0.10447901,0.4939218,-0.70727116,0.46487102,0.199298,-0.46268547,-0.6622624,0.036964744,-0.4851308,-0.000782061,0.77819735,0.31784016,-0.44417584,0.38463554
Lion,-0.43999407,-0.16604345,0.54112166,-0.6279899,-0.9513963,-0.033876255,0.48406655,1.1920936,-0.3202942,0.6946972,0.59687936,-0.069126494,0.5237394,-0.7523026,0.20891899,0.18990754,-1.212849,-0.05439097,-0.91492,0.83182454,0.36123285,-0.41562492,-0.990877,0.3172948,-0.5040668,-1.6964138,-0.22351405,0.21856678,-0.08066379,-0.67049265
Shadow Shaman,0.43242446,-0.49298233,0.4879049,0.15484731,-0.09081428,-0.8081829,0.3295089,0.35313767,-0.48818436,-0.5782681,0.6786746,-0.06395374,0.7627683,0.28055495,0.432321,0.48991194,0.2943372,0.06826193,-0.8158328,0.4775468,0.09239083,0.21932721,-0.5566937,-0.21602763,-0.61205006,-0.19787177,-0.000443456,0.6655156,-0.069348164,-0.81206197
Slardar,-0.11657143,-0.39331394,0.92474556,1.2061671,-0.5773926,0.02252748,0.64251375,0.20438457,-1.1122956,-0.006186384,-0.20182794,-1.1910217,-1.1412834,0.5716492,0.28267556,-0.6374987,-0.14113654,-0.24612984,0.4988846,-1.4891281,-0.109885015,-0.81835955,0.019030698,0.5770855,-0.07682439,1.142467,0.695778,-0.11075666,0.57859963,-0.37974274
Tidehunter,-0.1958089,1.0475389,1.2615669,0.46717227,-0.14825875,0.07728172,0.20266597,0.70968145,-0.06386706,-0.8574594,0.09127237,-0.065681584,-1.0532634,-0.386905,0.23889644,0.35718623,-0.5449808,-0.062946096,0.9803583,-0.4844369,-0.1326691,-1.2096225,0.013925816,1.2379168,0.3112835,0.5449371,0.15783134,-0.07601426,-0.68403304,-0.13452797
Witch Doctor,0.081024535,0.28823668,0.77478075,-0.06735336,-0.16936813,-0.077386506,0.38526416,-0.20346761,0.00267205,0.2724789,0.46071032,0.0191898,1.2126808,-0.30460456,-0.26271164,0.044417243,0.996924,-0.029886728,-0.3696047,-0.007055007,0.002871583,0.25128627,-0.4057459,0.029521234,0.18333161,0.5266076,-0.8880492,0.49873114,0.41327325,0.38282254
Lich,-0.25720948,-0.61289585,0.70242673,-0.07289447,-0.5071514,-0.31127274,0.097551785,-0.52953357,-0.2269856,0.5888598,0.51220614,-0.24884228,1.3088071,-0.041701443,-0.8063065,-0.40924346,0.7470174,-0.49206135,-0.6979051,-0.76561457,0.46339983,-0.5346877,-0.20651644,-0.81974775,-0.043515984,0.4793573,-0.18573341,0.25077644,0.614162,0.4789533
Riki,0.6986302,-0.9902811,-0.2452697,-0.4478067,0.2659729,-0.15223064,-0.8939752,-1.0052472,0.32160065,-0.52047914,0.64388734,0.030036839,0.68767947,-0.66774684,-1.076345,-0.34338388,-0.05158453,0.10693598,-0.08579236,0.5218672,0.34924987,0.6744613,0.36014682,-0.084624946,1.0551473,0.26386705,0.51567477,0.08348312,0.06886139,-0.6577601
Enigma,0.1088859,0.529166,0.8386643,0.112955384,-0.34196123,-0.9927392,-0.28272852,0.68534076,0.23336965,-0.6819739,0.41598672,-0.07285029,0.16464888,-0.88476676,-0.110419974,0.19106229,0.19767886,-0.13823062,-0.76803184,-0.08069385,-0.40097678,-0.28839603,-0.004408224,0.16215552,-0.09488505,0.481837,-0.7222125,0.6463621,-0.14269817,-0.2367122
Tinker,-0.52157366,-0.09553494,0.30239686,0.3209069,0.09276471,-0.1354481,0.30613926,0.3510962,-0.0565694,0.70744,0.079901375,0.08474063,0.42438614,-0.46898326,-0.15397008,0.33765945,-0.6743079,-0.20422842,-0.1271371,0.35752767,0.59234726,-0.76999295,-0.32101473,0.6262696,-0.06627701,0.20518562,0.31469697,0.17400728,-0.20289594,0.43113023
Sniper,-0.15145077,-0.18323317,0.3456941,0.5063109,0.41486633,-0.38077247,0.04956597,-0.087620325,-0.21371481,0.2554516,0.25622043,0.023401896,0.4653456,-0.04516869,-0.15851417,0.32398224,0.11297213,-0.33536342,-0.65775156,0.51792467,0.56604886,-0.23507112,0.5038249,0.119888686,0.08361638,0.42873108,0.104256436,0.38650888,-0.23806238,-0.18532595
Necrophos,-0.121392675,0.3380726,1.0295455,0.57939404,0.4769928,-0.9185112,-0.46951973,0.2803078,-0.036750544,-0.074955076,0.6635373,-0.22904047,-0.25790384,-0.44782826,0.12307377,-0.3315276,0.57523257,-0.048394743,-0.65483564,-0.4540548,0.17125903,-0.24255577,0.508167,-0.13916218,0.20450099,0.7704144,-0.50765723,0.3519693,0.2097766,0.20827742
Warlock,0.2838874,0.09711419,0.67620283,-0.25754532,-0.038827866,0.6869983,0.60935146,0.3063378,-0.26854855,1.1181151,0.47365403,-0.20032506,0.9504008,-0.092686206,0.15811136,-0.5070008,0.42399457,0.2999734,-0.15216285,0.208112,-0.20887524,-0.16249731,-1.0641946,-0.08305335,0.08856043,-0.17216077,-0.15709592,0.46395138,0.2683319,0.85172963
Beastmaster,-0.15134183,0.73570585,0.87814945,0.5559959,0.31354275,-0.43421128,0.2143589,0.6967914,0.04670473,-0.7636948,0.3553883,-0.5125528,-0.8233527,-0.34931275,-0.07429311,0.15911303,0.33030966,-0.51330876,-0.17462212,-0.37176514,-0.12701377,-0.42393285,1.0895618,0.66114795,0.19426486,0.81534076,0.05018862,-0.19501728,0.10891375,-0.4049572
Queen of Pain,-0.28288603,0.2679685,0.48897263,0.42893356,0.9523984,-0.64496136,0.21936052,0.28869554,-0.5988592,-0.012578684,0.73379683,0.11992109,0.16599739,-0.5073439,0.23086053,0.06028859,1.0111042,0.004735227,-1.0880852,0.09505228,0.4656466,-0.07146835,0.25377175,-0.16114804,0.003097477,0.7237002,-0.32245576,0.18122903,-0.17242672,0.7514827
Venomancer,0.17547023,0.43189186,0.9768072,0.28636384,0.12092305,-0.39525777,-0.2972191,0.23999996,-0.21443899,0.4564788,0.55934936,-0.27059314,-0.2998066,-0.23594785,0.19746134,-0.015566492,0.8104473,0.38436398,-0.7343206,-0.9771788,-0.051160228,-0.75688404,-0.017555386,0.15421975,-0.17400542,0.5553992,-0.41761962,-0.001423513,0.002690639,0.060746353
Faceless Void,0.30425724,-1.0221237,0.035727855,-0.44253322,0.59952086,0.7666011,-0.20169275,-0.38052982,0.09039451,0.28114247,0.09942962,0.02329295,-0.12833363,0.24037598,-0.28367507,-0.7666071,-0.22196329,0.9020598,0.3766568,-0.18591571,-0.28560504,0.8452002,-0.12184152,0.7622973,1.0304209,-0.18703102,1.3913056,-0.72567993,0.44028872,-1.0202032
Wraith King,0.087095,-0.7249936,-0.28959987,-0.71868813,0.052357305,0.4569196,-0.6292812,-0.98002034,0.02199982,-0.47135332,0.8721638,0.22875507,0.23437773,-0.53404343,-1.1410164,-0.34714407,-0.2363012,0.059383042,-0.13273792,1.0185146,-0.047046658,0.29276106,0.08166261,0.34063137,0.68182546,-0.6290895,1.0077134,-0.51142997,0.043879557,-0.8400389
Death Prophet,-0.5083743,0.2409778,0.50450575,0.050806325,0.35453746,-0.4651489,-0.38371032,0.25508094,-0.7161556,-0.61711,0.38168955,0.20958877,-0.5070635,-0.6666864,0.048655707,0.17026193,0.47934312,-0.04313274,-0.9550879,0.36199373,-0.10351879,-0.14956445,-0.4503534,0.31592602,0.19070855,0.8116965,0.021639645,0.2201594,-0.52008873,0.5781973
Phantom Assassin,0.8355294,-1.1114049,-0.12777333,-0.31006673,0.524475,0.48577595,0.042077314,-0.4813718,0.35619152,0.24033463,0.20757383,0.26142204,0.5952581,0.06761486,-0.9142577,0.036598843,0.17696069,0.75337815,0.061772253,0.10227258,0.14998713,0.343104,-0.7776017,0.2964215,0.6539954,-0.5642739,1.2071377,-0.8487855,-0.12504722,-0.9915209
Pugna,0.33262706,-0.057982214,0.39070398,0.4373442,0.1954169,-0.6622069,0.038609225,0.10142965,-0.35709274,0.08038431,0.8133337,-0.44018775,0.13313234,0.41668427,-0.20214592,-0.19232062,0.83301055,0.09552117,-0.8252152,-0.08796846,-0.002094774,0.2046292,0.22133301,-0.16747929,0.19430456,0.8139131,-0.2289499,0.8263197,-0.013919598,0.159108
Templar Assassin,-0.9170185,-0.31492773,0.32888797,-0.106583096,0.010982919,0.18365243,0.10599597,0.012508556,-0.66630995,0.2903675,0.48360416,0.05834334,0.27963954,-0.16131228,0.14100231,-0.030294614,-0.100265875,-0.107998274,-0.45097303,0.75252724,-0.14126843,-0.48302343,-0.09553039,0.051314868,0.17540038,0.13529289,0.46017337,0.10540463,0.038867194,0.45840308
Viper,-0.36896357,0.3655382,0.6843495,-0.047889944,0.005116531,-0.028408844,0.4708341,0.89273214,-0.20227145,0.23285949,0.28500855,-0.30118877,-0.4072506,-0.38405606,0.25232247,0.36109823,0.023855777,0.3051675,-0.6616034,-0.47642958,-0.27622443,-0.7109374,-1.0661962,0.64326423,-0.28018403,0.3213175,0.036323443,-0.02089839,-0.2745462,0.23839203
Luna,-0.21332903,-0.20489708,-0.5903573,-0.8611688,0.6018074,0.69715476,-0.699638,-0.17943867,0.2138326,0.30056044,-0.13271539,1.4531181,0.035770807,-0.07171369,-0.8294685,-0.040544275,-0.9613648,0.8166826,-0.508806,1.6444035,-0.69993854,-0.52745664,0.41586825,1.176049,0.6459758,-0.60328615,1.3057957,-0.51615274,-0.20817256,-1.1142007
Dragon Knight,-0.72374445,0.42922267,0.63420314,-0.288888,-0.34729937,0.29623488,-0.3855841,0.39100108,-0.27053055,-1.1166122,0.40741497,0.041433387,-0.715203,-1.0173078,0.09727868,-0.2105533,0.062119517,-0.40203676,0.21326949,0.98251796,-0.115679234,-0.23310825,0.42472762,0.95316446,0.515862,-0.15801452,0.074874066,-0.1250192,0.5303725,-0.09192232
Dazzle,-0.120726004,0.14369057,0.52429146,0.18205565,0.19769424,-0.7961052,-0.61772513,-0.14566666,-0.103550635,0.042665243,0.6235828,-0.27223384,0.45725495,0.061752412,-0.17457741,-0.00742628,0.3881972,-0.22270913,-0.8159995,0.20454335,0.09905868,-0.048454843,0.47457054,-0.064166844,0.40487266,0.89304733,-0.24201652,0.73573804,-0.10976046,0.1538691
Clockwerk,0.08119633,0.075439736,0.4538875,0.842859,-0.19827278,0.53723943,0.51745,0.18337981,-0.7727736,-0.21790376,0.48436365,-0.19480963,0.48685488,-0.023803229,0.43346447,-0.64005417,0.41125512,-0.10956668,0.47265992,0.32379526,0.22516493,-0.03006591,0.10636949,0.047967684,0.39480808,-0.04341179,-0.07075944,0.14652936,0.7943879,-0.03995441
Leshrac,-0.5650348,0.08348824,0.45223564,0.09928425,0.2944841,0.23669277,-0.25968075,0.49159908,-0.8167363,0.2631925,0.11239029,0.13367543,-0.50118864,0.002809581,0.3230476,0.1361777,0.65591025,0.33314013,-0.87314874,-0.17649901,0.057071492,-1.0016544,-0.3762919,0.55109984,-0.3245423,0.59311056,0.48234454,0.13371664,-0.6243655,0.48299813
Nature's Prophet,0.58998114,0.34482577,0.69658095,-0.29988214,0.6316986,-0.87303466,-0.7884395,0.049690053,0.30780515,-0.37874863,0.3719477,-0.56470245,-0.36457503,-0.25309807,-0.3754247,0.016185516,1.1499778,0.6081223,-0.8434377,-0.42903337,-0.44445965,0.13122833,0.36879018,0.21741898,0.31716064,0.87158984,0.052750863,0.1472912,-0.08383394,-0.4904096
Lifestealer,0.6843302,-1.4157544,-0.4457569,-0.52474,0.34171292,0.82674456,-0.17592643,-0.49910155,0.21937892,0.62658966,0.49374217,-0.059749052,0.5458245,-0.028641144,-0.62462217,-0.5671785,-0.45609036,0.732698,0.3492985,0.010279768,-0.1879195,0.10889989,-0.11617062,0.068277605,0.6984764,0.04921823,1.256567,-0.420959,0.27420217,-0.7377945
Dark Seer,-0.26908758,0.2738488,0.9962756,-0.27389333,-0.16527514,-0.15020339,-0.08712675,0.8425644,-0.01756064,0.7801789,0.7941865,-0.43352765,-0.93121195,-1.228986,0.10374452,0.07748966,0.11314263,0.43568543,-0.5768214,-1.1012006,-0.7281872,-1.080462,-0.21523365,0.04103781,-0.38697863,0.03889762,-0.358796,0.593417,-0.17767675,0.11418695
Clinkz,0.3533604,-0.11600394,0.034498964,-0.00345317,0.84845275,-0.27054542,-0.64160925,-0.197399,0.29212192,0.22416712,-0.021024112,0.58735555,0.52401996,0.039149493,-0.54514825,0.5528382,0.2674649,0.32238296,-0.65558255,0.115409814,0.39427653,-0.1826427,0.48456177,0.43303588,0.4630296,0.60353374,0.5527514,-0.01357419,-0.32217628,-0.5658141
Omniknight,0.124322295,-0.28161466,0.22800471,0.6144241,0.054241594,0.18072972,1.092671,0.5177285,0.5535381,0.3955522,0.269788,-0.90466386,0.96932155,-0.984458,-0.054839045,-0.34877196,-0.3584304,-0.091376916,1.594275,-0.85418254,0.37951833,-1.4456869,-0.40958247,-0.072670974,-0.18296914,0.679675,0.4517474,0.3475944,-0.097545825,0.19550133
Enchantress,-0.123279534,-0.2403304,0.67423666,-0.5043787,-0.5121415,0.18717079,0.452848,0.05288052,0.1109201,0.70144826,0.23205566,-0.006068055,0.86904633,-0.2843291,-0.37678728,-0.2952678,0.4467581,0.2228386,-0.1514608,0.07478898,-0.31037512,0.08948132,-0.88057256,0.21405292,0.41407025,0.009466613,-0.43050262,0.497263,0.3322024,0.51802623
Huskar,-0.20271131,-0.5789233,0.31759733,0.35018784,-0.09432664,-0.49717087,-0.2805346,-0.26865315,-0.5052227,0.000178332,0.54357916,-0.07964569,0.45591086,0.105696075,-0.24839765,-0.301229,-0.26629302,-0.3637104,-0.6702818,0.055060543,0.42922977,-0.09878149,0.5383058,-0.3294378,0.24769631,0.68579733,0.40103966,0.6366091,0.11060159,0.08895832
Night Stalker,-0.29192346,0.17744139,0.49856946,0.63031733,-0.12063933,-0.30420107,0.5257522,1.0767707,0.08879264,-0.05863185,-0.073337056,-0.20850357,-0.8563559,-0.6919871,0.16396956,0.33189163,-0.6667764,-0.12186333,0.82019824,-0.2964199,0.4135037,-1.4461305,0.11306317,1.2289224,-0.014330465,0.57794696,0.5134096,-0.24674942,-0.34743303,0.15788063
Broodmother,-0.83316135,0.22529997,0.65066713,-0.49903563,-0.59649754,0.57703364,0.36230034,0.60967475,-0.21366948,0.11072547,0.68226707,0.1880705,-0.5723595,-0.9904312,0.13806324,-0.3038623,-0.76485014,-0.012629814,-0.08238052,0.8487313,-0.39789402,-0.8168288,-0.18004283,0.38101634,0.21640342,-0.692931,0.20577551,0.15931746,-0.20933554,0.1466008
Bounty Hunter,0.023309369,-0.24023846,0.46206424,0.47526902,-0.125763,-0.8226145,-0.39478827,-0.12117924,-0.107739575,-0.9193286,0.54985654,0.06267406,0.33915237,-0.45506543,-0.4717382,-0.16983615,0.099390306,-0.53026706,-0.29204646,0.5466982,0.20840383,0.20437664,0.42858234,0.005872317,0.45636436,0.32978606,-0.009096312,0.37404218,0.07206702,-0.18241814
Weaver,0.35454553,-0.40128946,0.07095087,-0.14640132,0.45420113,-0.35554826,-0.13274293,-0.07049687,0.52605045,-0.13534133,0.09461274,0.3488848,0.5986426,-0.579218,-0.714748,0.48307058,0.04855279,-0.12496146,-0.32255796,0.6822225,0.42965478,0.04959684,0.006720047,0.48637217,0.3496585,-0.12590317,0.48414737,-0.047343615,-0.50179714,-0.58975923
Jakiro,0.042122006,0.45443192,0.7296198,0.49434838,0.169339,-0.19292954,0.029226586,-0.079728425,-0.07225615,0.83406955,0.29889536,0.3429601,1.2155774,0.3354721,0.033423472,0.11938115,1.0787673,-0.051385883,-0.39641696,0.09137911,0.17960738,-0.40996203,-0.21382497,0.1673424,0.1625351,0.6228512,-0.5790925,0.27663866,0.1352462,0.5959526
Batrider,-0.8055572,0.2494019,0.874163,0.7445027,0.07124181,-0.7701399,-0.21466854,0.63446414,-0.4474281,0.2902436,0.098264605,-0.08323574,-0.21930164,-0.22016141,-0.057621226,-0.101859026,0.2659501,0.1676651,-1.0691714,-0.7566825,0.60978353,-0.5566964,-0.09115577,-0.052090585,-0.17946684,0.6212536,0.051849768,0.059849888,0.117342226,0.24859047
Chen,0.011517787,0.17509316,0.7073467,0.11805958,-0.2169818,-0.5807728,-0.14580733,-0.16491483,0.08481985,-0.08694284,0.4877707,-0.46629784,1.2159832,-0.2810335,-0.6172247,-0.14507586,1.1597012,-0.25647908,-0.3878441,-0.16649036,0.22375439,0.4152255,-0.08365483,-0.07107707,0.54937536,0.50061995,-1.0283585,0.7365958,0.57436925,0.24645288
Spectre,0.75151104,-0.7241401,0.0868707,-0.04859841,0.5424812,1.0802481,-0.27333242,-0.9822047,0.12875052,0.6670232,0.1398378,0.4335589,0.24040876,0.047507327,-0.6745227,-0.5693957,0.34718043,1.1614811,0.22159323,0.34522536,-0.4785359,0.10029524,0.000524687,0.37854066,0.55539197,-0.5366696,0.879073,-0.7899411,0.6148188,-1.1783
Ancient Apparition,0.12819129,-0.12313468,0.7325622,-0.9486427,-0.77234936,-0.09010327,0.74455005,0.22839998,-0.068508886,1.0599025,0.017708572,0.99595773,0.78259254,-0.7925458,-0.35358,-0.66306585,-0.5169881,0.09401414,-0.7825405,0.29135513,-1.108954,-0.30327475,-1.0356114,-0.3098651,0.35841298,0.27143416,-0.28947932,0.9603818,-0.24139227,1.086021
Doom,0.36469802,0.41731447,0.66898715,0.5805996,0.5119609,0.79661024,0.78195965,0.6354382,-0.46607038,-0.10129995,0.52460134,-0.3821927,-1.0669162,-0.58418274,0.47236818,-0.4461436,0.4562364,0.08557444,0.018226497,-0.51637906,-0.3642605,-1.0083828,-0.094196945,0.61306006,-0.10621795,0.42906398,0.14889798,-0.6742051,0.13922705,0.41083166
Ursa,0.30148488,-0.6762791,-0.33083102,-0.35985982,0.37597865,0.3761049,-0.3997883,-0.4577769,0.2189334,-0.3054134,0.17979036,0.525272,0.30230778,0.10442572,-1.0371543,-0.012197253,-0.21103998,-0.015972922,-0.24502999,0.92177767,-0.1242305,0.6750523,0.19797681,0.72225994,0.94904554,-0.08172005,0.9925412,-0.21650608,0.201036,-0.93808436
Spirit Breaker,0.14952257,-0.06885134,0.0710917,0.8196366,-0.25908566,-0.17982833,0.50677705,0.5216319,-0.17088033,-0.4070194,0.33357206,-0.14113703,0.22875254,0.03795602,0.23350628,-0.14732179,-0.33374807,-0.20523156,0.82074976,0.846105,0.4092966,-0.56261486,0.098932505,0.9801617,0.15210879,0.018478418,0.009140036,-0.007862941,0.5751362,-0.25344527
Gyrocopter,0.47107503,-0.9947318,-0.28510597,-0.84023744,-0.6437703,-0.31605867,-0.6980659,0.0719343,-0.1998347,0.22536723,-0.62304705,1.346222,0.17175125,0.08210632,-0.6878632,-0.5535027,-0.7384069,0.17629865,-0.47736353,0.6043753,-0.39562705,-0.25778508,-0.43060824,0.96163315,0.75572544,0.09758586,0.88525194,-0.26487696,0.03643278,-0.6718177
Alchemist,0.11982416,0.09173536,0.32467625,-0.07140635,0.20813923,-0.18752141,-0.39969042,-0.38556314,-0.08914421,-1.1487722,0.349089,0.42607352,0.5412505,-0.5621628,-0.47003883,-0.08708275,0.33410925,0.1293728,-0.523994,0.6880351,-0.20741807,0.28520763,-0.1395742,0.06699492,0.3457637,0.019158525,0.35396186,-0.093064204,0.035315715,-0.5830099
Invoker,-0.40976423,0.41101572,0.435189,0.26645708,0.45769295,0.43878275,0.6200977,0.6779228,-0.507131,0.5702394,-0.11762399,0.17971885,-0.033645656,-0.52196556,0.4300515,0.23376836,0.003046978,-0.03171428,-0.5305815,0.7089494,0.2088764,-0.6368724,-0.6294245,0.80936503,-0.16806456,0.10448227,0.16637191,0.20693144,-0.45268187,0.69934684
Silencer,-0.7490422,-0.13449506,0.3288164,0.52495587,0.6157833,-0.47449178,0.5883171,0.20710841,0.26971057,0.8432444,-0.018564144,0.4063249,0.49652374,-0.30457842,-0.35005668,0.8130076,-0.32012302,0.16848284,0.0699843,0.009761681,0.7904609,-0.7703189,-0.51450026,0.5770823,0.2306817,0.23809746,0.4340336,0.10360844,-0.43993267,0.46315464
Outworld Destroyer,-0.43068096,-0.25815293,0.33894655,0.44483396,0.036323983,-0.7014543,0.11717816,0.18121408,-0.72890043,0.03466145,0.3385738,-0.30160102,-0.04079862,-0.06621179,-0.20390494,0.2899899,-0.13300471,-0.51447517,-0.7927018,0.037571173,0.5077463,-0.425892,-0.22964202,0.24821535,-0.15373881,0.7769409,0.39648128,0.2637571,-0.18751082,0.5000542
Lycan,0.15395164,-0.112445004,-0.13271749,-0.18666488,0.78540224,-0.500137,-0.3929876,-0.20257552,0.6166263,-0.8501805,0.60560906,0.22480781,0.5699127,-0.3940755,-0.97882646,0.30155927,0.37161088,-0.028897576,-0.36535087,0.98181564,-0.052027237,0.488148,0.7288291,0.36184356,0.57302266,0.17140141,0.45639926,0.016492343,-0.19090329,-0.8568189
Brewmaster,-0.14896782,0.5478367,0.6687683,0.19915509,-0.27411544,-0.045735225,0.3284225,0.6895097,-0.11431146,-0.33739343,0.2554358,-0.052636936,-0.2100522,-0.52790725,0.028126262,0.0932078,-0.13582917,-0.23420653,0.3340851,0.2382618,-0.19960307,-0.64319474,0.14121108,0.8044418,0.14063756,0.32575193,-0.05271001,0.18327785,-0.09745296,0.15717193
Shadow Demon,-0.05739609,0.24120706,0.7088993,0.22809865,-0.56080407,-0.114397705,0.45415258,0.4285446,-0.13508044,0.4140967,0.3700678,0.026047172,0.8025893,0.27677992,-0.1835761,0.48148456,-0.22077905,-0.27786466,-0.45794204,0.60138786,0.5951833,0.23597883,-0.30040294,0.28274122,0.2107209,-0.55186415,-0.254856,0.6724157,0.14222142,-0.27305177
Lone Druid,0.21438019,-0.4308685,0.1885425,-0.09318325,0.28027302,-0.23398763,-0.49621743,-0.44801328,-0.008580711,-0.15433057,0.53154147,0.017736243,0.5812201,0.107874885,-0.58615965,-0.1871723,0.43436438,0.10282804,-0.3762631,0.10588172,0.20911731,0.20098874,0.4195395,0.087768055,0.5965453,0.37484223,0.26002467,0.007190609,0.18995821,-0.42940393
Chaos Knight,0.19152647,-0.06860803,0.33637518,-0.08139754,0.04154284,0.7036209,0.21339057,0.34122938,0.10095565,0.2708328,0.135941,-0.17671648,-0.34971163,-0.021698704,-0.13900319,0.006391712,-0.28424132,0.5951394,0.43295115,-0.19221148,-0.14631614,-0.7290468,-0.6480177,0.9366112,0.26605883,-0.24305174,0.7513309,-0.7093423,-0.04507108,-0.7323357
Meepo,-0.17039053,-0.38371307,0.4213511,0.37847292,0.13807672,-0.41572013,-0.32113636,-0.28978002,-0.4709773,-0.26819366,0.39284006,0.032362107,0.3976524,-0.095244326,-0.14163549,-0.1263217,0.31558192,-0.18576461,-0.59396434,0.11765853,0.3758447,0.06814797,0.24735607,-0.16327424,0.20885509,0.47633573,0.2266208,0.34820145,0.15672481,-0.12680916
Treant Protector,-0.035187054,0.23431364,0.83326614,0.01350444,0.07316728,0.13018821,0.461853,0.44267362,-0.09534015,0.2803128,0.30870616,-0.44398782,0.602183,0.6681106,0.23711058,0.09025695,0.8400305,0.18768449,0.56693757,0.04475037,-0.024463564,0.29443955,-0.03490105,0.6091329,0.5765228,0.3704762,-0.41709176,0.5954319,0.6705313,0.14204432
Ogre Magi,-0.13956414,0.2553852,0.6989025,-0.022448018,-0.17680982,0.42184073,0.7787933,-0.25043863,0.20091616,0.84663767,0.44326124,-0.23583081,1.3737085,0.75433236,-0.27248466,0.5118375,0.5335151,-0.29936388,0.4064473,-0.032584727,0.12312477,0.048857667,0.061837524,0.42161417,0.4104341,0.6089506,-0.32109684,0.3070707,0.33049542,-0.08894964
Undying,-0.1856282,0.33797306,0.58328813,-0.053225085,-0.18345627,0.4685465,1.3978623,0.5531118,0.21295555,0.5917071,0.27163312,0.04509732,1.3095707,0.3548117,-0.1224232,0.27289617,0.7355267,0.30915105,0.857627,-0.103544176,-0.13820392,-0.006152807,-1.332437,0.70067155,0.44702804,0.29094288,-0.302698,0.2643644,-0.07431317,0.62501836
Rubick,0.17379463,-0.65942746,0.3754358,0.91012895,-0.15690988,-0.6534669,-0.003009811,0.078354746,-0.7726878,0.25476375,0.5379244,-0.3827577,0.23333316,0.4412903,0.28266376,0.3312427,0.46688288,0.6407742,-0.9303655,-0.19984917,1.3143547,0.2540921,-0.36944774,-0.37492895,0.034796987,-0.29900646,-0.08322769,0.7101233,0.010169051,-0.90998423
Disruptor,-0.3946578,-0.2941553,0.3718092,0.12261222,-0.44114494,-0.4390636,0.5787476,0.01941601,-0.14853051,0.961253,-0.038102195,0.08238438,0.9180387,-0.012632871,-0.008198567,0.016256599,-0.08998344,-0.11248774,-0.42969057,-0.28047115,0.10446729,-0.20586626,-0.29651642,0.21798377,-0.08731844,0.809923,0.31209907,0.7259059,0.22526962,0.489259
Nyx Assassin,0.18391111,0.15358838,0.1188063,0.6303887,-0.31436706,0.3967271,0.16122918,-0.18172504,-1.0284547,-0.6192012,0.43824074,-0.08493603,0.31252474,-0.30249608,0.4359171,-0.6067761,-0.83037573,-0.3807873,-0.08176097,1.3995191,0.08659528,-0.49667042,-0.0685732,0.11071785,0.10390554,-0.32674837,0.34050384,0.45689338,0.09234231,-0.28757036
Naga Siren,0.35149142,-0.6944889,-0.050261658,-0.21746045,0.6327554,0.15658039,-0.99396574,-0.7567389,0.1455079,-0.29553044,0.7134817,0.2313337,1.1864777,-0.093483634,-0.6155657,-0.24053945,-0.2795783,0.21344405,0.24698062,0.6443546,0.2782868,0.25877973,0.8101796,-0.02779504,0.8050436,-0.22178163,0.84701693,-0.35447702,0.66187835,-0.6905495
Keeper of the Light,-0.19183144,-0.0603572,0.9572296,-0.33380938,0.5398546,-1.2037815,0.06544178,-0.21541268,1.0518501,-0.012952619,0.76329315,0.08810148,1.1764418,-0.80863535,-0.81160283,0.14636418,-0.2003545,-0.3852683,-0.89100826,0.3139629,-0.09744124,0.78086996,-0.31948665,-0.4662133,0.093596905,0.14347935,-0.37789637,0.9990411,-0.06336848,-0.080530055
Io,-0.7037278,-0.05647656,0.47960678,0.24539497,1.110822,0.8529789,1.0296324,0.40836924,0.82392335,0.44821778,1.1759065,-0.63928056,0.72867566,-1.2237673,-0.56242925,0.5815414,-0.01909484,0.7140252,0.38692793,-0.330653,0.811511,-0.5454396,-0.9587902,-0.7811896,-0.20144655,-0.8649874,0.98814005,0.08383725,-0.7062802,0.094774775
Visage,-0.12978472,-0.036025647,0.33777353,-0.010242879,0.089306295,-0.1293781,-0.004475449,0.21323374,0.011251912,0.48124275,0.35856813,0.01852562,0.23973073,-0.35682216,-0.27001202,0.14076713,-0.08295555,0.20116134,-0.4442749,0.16696091,0.19683464,-0.29788873,-0.22705822,0.37210038,0.17201331,0.042972643,-0.002007512,0.27585757,-0.1301001,-0.09336643
Slark,0.7697776,-1.4747245,-0.55655366,-0.34963393,0.24511129,-0.24386023,-0.5320458,-0.788586,0.09202047,0.15992297,0.32326734,0.27970698,0.73722076,0.1805159,-0.7298105,-0.42575744,-0.5012175,0.2984333,-0.03981181,0.37275052,0.12519117,0.58457375,0.2706579,0.3525691,0.7525737,0.29902393,1.5811033,-0.43753618,0.52031237,-0.54594284
Medusa,-0.6831255,-0.4632899,-0.011209806,-0.90444165,0.15067384,0.60572684,-0.06417184,-0.029114015,0.10091667,0.48371565,-0.02281391,1.0209064,0.28603843,-0.17349759,-0.8148935,0.1533226,-0.4190427,0.6329678,-0.6591105,0.49267873,-0.6404992,-0.4172676,-0.24195994,0.6655243,0.26898557,-0.8077736,1.0677092,-0.83136326,-0.13121617,-1.0394654
Troll Warlord,0.58386314,-0.884766,-0.02545696,-0.6975459,0.35425082,0.31033638,-1.2586753,-0.93179065,-0.017040474,-0.85338575,0.6359382,0.290864,0.7619849,0.31224748,-0.70378774,-0.088775024,0.4184973,0.14020744,-0.22082871,-0.06136689,0.11791496,0.251934,0.33692735,0.12900147,0.772828,0.38584983,1.1285663,-0.61421794,-0.007511647,-0.95778203
Centaur Warrunner,-0.15989648,0.32228193,1.0152626,0.62386423,0.12124578,0.14537667,0.207203,0.18707743,-0.31007114,-0.8129682,0.5130717,-0.6483135,-1.0114102,-0.6242344,0.054880414,-0.70481485,-0.23254073,-0.72751373,0.54182667,-0.403973,-0.4532307,-0.7298761,1.267588,0.4200934,0.16025014,0.8458074,0.054540165,-0.043277554,0.09207836,-0.25049645
Magnus,-0.52154,-0.000396678,0.832376,0.4606449,0.4172989,0.7897126,0.5693107,-0.07238535,-0.6239694,0.7835678,-0.123844504,-0.108450584,-0.5826667,-0.25333852,0.22467208,-0.122319974,-0.3114405,0.06684171,-0.044095192,-0.47125834,-0.37163737,-1.0604098,-0.23659624,0.7024749,-0.40688074,0.76138586,0.61548674,-0.42585307,0.15482344,0.517414
Timbersaw,-0.17193127,0.4217228,0.8681505,0.013969907,-0.44756734,0.16292562,0.06864881,0.41490343,-0.086224444,-0.41973808,0.55710727,-0.2067445,-0.86317086,-0.8222245,-0.059972525,-0.18730302,-0.28099933,-0.12907906,0.17893408,-0.453295,-0.7260819,-1.1292169,0.46687067,0.26095146,0.09923028,0.5993632,0.27054998,0.31597075,-0.59289354,0.104944006
Bristleback,0.039238486,0.10936628,0.27948925,0.30640766,-0.5476434,-0.50712395,-0.71642625,-0.23412669,-0.53497547,-1.0529091,0.14696452,0.685914,-0.36383986,-0.62673473,-0.17321317,-0.55088156,0.0624747,-0.47750756,0.11627213,1.0514562,0.09366595,-0.7035932,0.682724,0.5440649,0.6714422,0.8790173,-0.055448078,0.24634355,-0.31108066,-0.03148713
Tusk,0.2389238,-0.050264407,0.45368108,1.0077575,-0.105312325,-0.41356024,0.7649909,0.3777151,-0.6016484,-0.99152094,0.26898438,-0.18647757,0.1860922,0.027739896,0.26283535,-0.10381994,0.3256816,-0.114233434,0.05737284,0.5669252,0.21079342,0.4850919,-0.17534898,0.24178773,0.080062054,0.000504233,-0.15234113,0.62171274,0.4364195,-0.7006802
Skywrath Mage,0.033635188,-0.5699106,0.39807653,1.0354174,0.42189807,-0.25883988,0.46812782,-0.07638698,-0.7799915,1.2547418,0.46975824,0.02924938,0.32883203,0.11169073,0.19197491,0.06415353,-0.25776085,0.33349827,-1.0282547,0.39221182,0.8978031,-0.28519192,-0.2858987,-0.72135985,-0.24114193,-0.1972917,0.21335715,0.65172446,-0.2161083,-0.16931745
Abaddon,0.110905364,0.1970432,0.20152839,-0.45123512,-0.6045572,0.66021645,0.84818995,0.6248071,0.0742472,0.025876967,0.50051117,-0.10577996,0.5086379,-0.84393156,0.015561633,-0.08049339,-0.4380436,-0.37136215,1.1030142,0.5597641,-0.517155,-0.70030594,-0.2991224,0.72493213,0.46104896,-0.053187974,-0.12578477,0.76020163,0.09525725,0.55974275
Elder Titan,0.17937529,0.21487133,0.5990393,-0.2372462,-0.6376916,0.3084063,1.1831133,0.50687283,-0.090193085,0.4898732,-0.28106278,0.29562438,0.7218635,0.016495991,-0.042274453,0.06381633,0.1151424,0.3813771,0.32658026,0.014770062,-0.4277697,-0.29041135,-1.3524143,0.56896144,0.37706527,0.27400696,-0.18706764,0.3289006,0.104146145,0.20500134
Legion Commander,0.14973728,0.1641199,0.93298876,0.11126709,-0.03210825,-0.1583485,0.15569086,0.4360111,0.14711694,-0.38090298,0.44694132,-0.9160998,-0.47310778,-0.5177612,0.22235921,-0.099234164,0.15142353,-0.5640922,0.7793555,-1.2451878,-0.14465126,-0.8830541,0.94363075,0.7183363,0.19825102,1.1329048,-0.33409512,0.2671105,0.3430833,-0.26198706
Techies,-0.26908115,-0.21834593,0.28064013,0.37808582,0.046963897,-0.21303734,0.26072302,0.48060313,-0.1805522,0.7341061,0.33346266,0.14485116,0.081450194,-0.24039963,0.036807153,0.27532813,-0.508044,-0.003773868,-0.5246271,0.32096282,0.32174996,-0.58799917,-0.27727476,0.39110133,-0.032512024,-0.06271287,0.05782315,0.36400267,-0.13120867,-0.071851455
Ember Spirit,-0.48942,-0.080965474,-0.094715565,0.12603427,0.02094487,-0.09526356,-0.15514578,0.10224351,-0.7364416,-0.47347668,0.6513945,0.15441094,-0.62131053,-0.89654076,-0.110406205,-0.022081578,0.966706,-0.25566107,-0.3569299,0.69052887,0.88807327,-0.4057195,-0.07799402,0.48625237,0.42663231,0.76355535,-0.028977608,-0.18761505,0.13835204,0.6567051
Earth Spirit,0.6137661,0.012772887,0.34916016,1.1466925,0.1795782,0.1914682,0.63496697,0.59616965,-0.766781,-0.73189,0.37039816,0.07266318,0.17213349,-0.09998012,0.73493785,-0.16629364,0.279695,0.050854895,-0.12167582,0.65187085,0.035156827,-0.07702085,-0.502432,0.19978249,-0.13823812,-0.6645458,0.01625578,-0.040192176,0.51414156,-0.77976215
Underlord,0.010783452,0.61405945,1.2292237,0.7085597,0.05636263,-0.10837717,0.12937754,0.3187704,-0.1997919,-0.36050627,0.3178897,-0.5083897,-0.37404674,-0.172188,0.26928172,-0.003455152,0.72033626,-0.12627822,0.2133149,-1.0457503,-0.3312099,-1.045429,0.27239415,0.31303588,-0.041114677,0.8714824,-0.36675683,0.15233025,0.22734785,-0.08461211
Terrorblade,0.42403448,-0.31226376,0.07111583,-0.86028326,0.74590325,0.94756424,-0.52677655,-0.29597023,0.24618961,0.40436164,0.004926154,1.0788883,0.30803373,0.1618147,-0.3576012,-0.07480795,-0.05091267,1.1687989,-0.37266088,0.6138222,-0.9049576,0.023745842,0.15492627,0.66927093,0.45573363,-0.4478869,1.1641175,-0.67632973,0.22306515,-1.1289363
Phoenix,-0.11800551,0.12194687,0.81452864,0.7462467,-0.37307835,-0.024847146,0.24263191,-0.52464384,-0.76217556,0.38688448,0.36936945,0.04467777,-0.15930188,0.14424711,-0.45950276,0.32289886,0.34336194,0.54239535,-0.7853543,0.020996576,0.23696655,0.000828335,-1.2041707,-0.004463758,0.5239941,0.013973868,-0.5790369,0.21217422,-0.49423474,-0.20910758
Oracle,-0.040434804,0.016450064,0.6715218,-0.5907994,-0.56538504,-0.21979862,0.6259702,-0.08610493,0.13401778,0.09832836,0.4026317,-0.17706124,1.68238,-0.7331241,-0.3023392,-0.39388812,0.9150552,-0.2222954,-0.055280786,0.019708965,-0.4657762,0.44889972,-0.8510701,-0.32499653,0.14536142,0.298233,-0.48494348,0.8115408,0.039336666,0.3052146
Winter Wyvern,-0.25354886,-0.102449104,0.55506754,-0.43757528,-0.83066815,0.052017532,0.37521014,0.48818478,-0.1296503,0.61787105,0.049816597,0.4096959,0.8181,-0.34672117,-0.09445746,-0.35340884,-0.48797494,-0.20186037,-0.23874563,0.2184761,0.025559746,-0.2508091,-0.48787194,0.34042302,0.31044802,-0.24721324,0.026654594,0.60969645,-0.09226528,0.40981928
Arc Warden,0.13408086,-0.6249152,0.26667926,-0.3764925,0.5024613,0.682327,0.33930314,-0.04014045,-0.01327237,0.5477479,-0.032611378,0.26879972,0.5137087,0.19079511,-0.06242521,0.051147003,0.3712464,0.7128887,-0.15927245,0.12997665,-0.32308453,0.009034966,-0.39464015,0.1351844,0.22479668,-0.19167915,0.93522185,-0.29014763,0.11697855,-0.8105387
Monkey King,-0.3011836,-0.45109233,-0.12633553,-0.18136351,0.26541278,-0.13014974,-0.36350846,-0.067636706,-0.030265573,-0.25482535,0.39335814,0.33108637,0.58231837,-0.037603106,-0.69480616,0.29922184,-0.21605153,-0.054975614,-0.29011142,0.61365455,0.438873,0.30588108,-0.108266205,0.5823971,0.54262537,0.0847895,1.0007894,-0.29007477,-0.049821757,-0.11010966
Dark Willow,0.118558735,-0.4802109,0.19357353,0.7062983,-0.24580556,0.05717284,0.6140214,0.50648785,-0.6665156,0.35952315,0.39080206,0.034580607,0.2763364,-0.3451229,0.3032049,0.3371614,-0.89057577,-0.18428624,-0.51098365,0.7154558,0.5620346,-0.28301919,-0.577844,0.17555927,-0.25022507,-0.33967203,-0.061588675,0.7336434,-0.30980325,-0.14531781
Pangolier,-0.124632925,0.3594692,0.58823955,0.85282505,0.11334054,-0.3509122,0.41171882,0.5248215,-0.16902986,-1.018475,0.5615584,0.08855042,-0.18143903,-0.6399298,0.08269889,-0.029986877,0.4280083,-0.48716065,0.0477378,0.21250388,0.17460048,-0.30021945,0.7591954,0.5602097,-0.17257021,0.32025012,-0.07629908,-0.13613828,0.15100561,-0.12625942
Grimstroke,-0.5444658,0.045212615,1.2987049,-0.30372316,-0.20548637,-0.38213778,-0.28813726,-0.44903925,-0.15192513,0.51966447,-0.3122776,0.603484,1.2768109,-0.4144205,0.14262003,-0.19551326,-0.20451578,0.09142413,-0.6027052,0.21860237,-0.6124914,0.3776689,-0.69387925,-0.012165018,0.16054085,0.2832588,-0.32565582,1.0933012,-0.18221387,0.17206651
Hoodwink,-0.3325286,0.006181646,-0.21696612,-1.0296379,-0.8323396,0.7117536,0.2724172,1.6575845,-0.18994609,2.0234318,0.906978,-0.103680395,0.03535522,-1.0285245,-0.41061127,0.075075425,-2.2659767,0.22093582,-0.61907077,1.8216861,0.07433931,-1.3268646,-0.85843396,0.876899,0.28875285,-2.2832148,-0.6479327,0.36173695,-0.713989,-0.36672536
Void Spirit,-0.16948597,-0.121143796,0.36977774,0.24997874,0.28754535,-0.3701216,0.32424405,0.5179608,-0.7335382,-0.4230368,0.47162983,0.107105576,-0.2267101,-0.7504525,0.3913654,-0.01554405,0.7033372,-0.0852676,-0.43232414,0.10389652,0.42083743,0.066604845,-0.38341925,0.32674396,0.14809997,0.4945117,0.26145318,-0.38220578,-0.22268134,0.62526584
Snapfire,0.18495056,-1.0235001,0.25606653,-0.06711746,0.27698675,0.50780123,0.73549736,0.40128657,-0.3992482,1.3613838,-0.009303112,0.20063838,0.46807483,-0.5906875,0.17417166,0.3332266,0.76780003,-0.1360983,-0.91510415,-0.15449478,0.047302186,-0.7204383,-0.47101718,-0.16584052,-0.6738349,-0.066094756,-0.022150477,0.12817277,0.24538983,-0.10081064
Mars,-0.79260075,0.5655183,1.3919507,-0.10802815,-0.061209053,0.07227671,0.6655747,0.4904111,-0.13137126,-0.63554686,-0.06789395,-0.53472364,-1.2264394,-0.5784767,0.27647665,-0.24133837,-0.33304995,-0.4526068,0.39894944,-0.36700648,-0.15284134,-0.53884584,0.60145324,1.0697274,0.1443532,0.60820454,0.7277669,-0.48635906,-0.04878203,0.10889072
